tree
version=v4
num_class=1
num_tree_per_iteration=1
label_index=0
max_feature_idx=14
objective=binary sigmoid:1
feature_names=Column_0 Column_1 Column_2 Column_3 Column_4 Column_5 Column_6 Column_7 Column_8 Column_9 Column_10 Column_11 Column_12 Column_13 Column_14
feature_infos=[-1.5553580295390552:1.6562957187716782] [-1.652789289188727:1.6864739857817237] [-1.6280975812911698:1.7435013014382852] [-1.5464833915567122:1.5376715203797513] [-1.4547681174559888:1.373947666486212] [-1.6192771247003488:1.5674490506398704] [-1.6796952581877469:1.6964646343842982] [-1.6314169092794621:1.7323292954204599] [-0.75:1.3333333333333335] [-1.0408036605677409:1.372606678210734] [-0.41772795488846809:7.0799532866994213] [-2.8976605576137069:1.4519371343010781] none none none
tree_sizes=325 668 562 769 562 563 663 559 560 354 564 561 667 563 355 355 561 874 565 768 1195 355 355 1302 561 673 355 355 1083 1198 770 776 567 1192 882 353 880 564 567 565 564 566 566 567 776 564 886 669 778 353 884 569 569 1113 353 992 353 892 1000 669 882 783 569 571 359 998 1220 786 679 1108 357 675 683 572 683 359 359 359 679 687 577 687 689 361 580 1114 685 363 689 362 363 583 1016 363 363 805 581 1585 1019 1130

Tree=0
num_leaves=2
num_cat=0
split_feature=10
split_gain=1150
threshold=1.0000000180025095e-35
decision_type=2
left_child=-1
right_child=-2
leaf_value=0.20000000000000001 -0.20000000000000001
leaf_weight=143.75 143.75
leaf_count=575 575
internal_value=0
internal_weight=287.5
internal_count=1150
is_linear=0
shrinkage=0.1


Tree=1
num_leaves=5
num_cat=0
split_feature=10 0 0 5
split_gain=941.54 5.68434e-14 5.68434e-14 7.10543e-15
threshold=1.0000000180025095e-35 -0.1349282483108227 1.2588640401931304 -0.24801879135741303
decision_type=2 2 2 2
left_child=1 -1 -2 -4
right_child=2 -3 3 -5
leaf_value=0.18187308119005771 -0.18187308119005771 0.18187308119005771 -0.18187308119005771 -0.18187308119005771
leaf_weight=59.651493966579437 127.96606796979904 82.670535206794739 9.1581131815910322 5.1978480219840995
leaf_count=241 517 334 37 21
internal_value=0 0.181873 -0.181873 -0.181873
internal_weight=284.644 142.322 142.322 14.356
internal_count=1150 575 575 58
is_linear=0
shrinkage=0.1


Tree=2
num_leaves=4
num_cat=0
split_feature=10 0 1
split_gain=784.969 5.68434e-14 5.68434e-14
threshold=1.0000000180025095e-35 1.3590909218580076 1.4062593516785291
decision_type=2 2 2
left_child=2 -2 -1
right_child=1 -3 -4
leaf_value=0.16825816740612271 -0.16825816740612271 -0.16825816740612271 0.16825816740612271
leaf_weight=123.20354591310024 130.91883645951748 7.7152905464172354 15.430581092834471
leaf_count=511 543 32 64
internal_value=0 -0.168258 0.168258
internal_weight=277.268 138.634 138.634
internal_count=1150 575 575
is_linear=0
shrinkage=0.1


Tree=3
num_leaves=6
num_cat=0
split_feature=10 0 0 0 1
split_gain=663.405 5.68434e-14 5.68434e-14 5.68434e-14 2.84217e-14
threshold=1.0000000180025095e-35 0.22766691231886124 1.3992699204803887 1.1519607553014175 0.25324788460562753
decision_type=2 2 2 2 2
left_child=1 4 3 -2 -1
right_child=2 -3 -4 -5 -6
leaf_value=0.15768741416156917 -0.15768741416156917 0.15768741416156917 -0.15768741416156917 -0.15768741416156917 0.15768741416156917
leaf_weight=37.11991548538208 116.23173536360264 64.495853155851364 6.0319862663745871 11.135974645614622 31.783927634358406
leaf_count=160 501 278 26 48 137
internal_value=0 0.157687 -0.157687 -0.157687 0.157687
internal_weight=266.799 133.4 133.4 127.368 68.9038
internal_count=1150 575 575 549 297
is_linear=0
shrinkage=0.1


Tree=4
num_leaves=4
num_cat=0
split_feature=10 0 1
split_gain=566.625 5.68434e-14 5.68434e-14
threshold=1.0000000180025095e-35 1.3834341306869311 1.5842516406295672
decision_type=2 2 2
left_child=2 -2 -1
right_child=1 -3 -4
leaf_value=0.14927178044610043 -0.14927178044610043 -0.14927178044610043 0.14927178044610043
leaf_weight=120.95676431059837 120.95676431059837 6.1915711164474478 6.1915711164474478
leaf_count=547 547 28 28
internal_value=0 -0.149272 0.149272
internal_weight=254.297 127.148 127.148
internal_count=1150 575 575
is_linear=0
shrinkage=0.1


Tree=5
num_leaves=4
num_cat=0
split_feature=10 0 0
split_gain=488.054 2.84217e-14 2.84217e-14
threshold=1.0000000180025095e-35 -0.84428253605514691 1.3014149323562598
decision_type=2 2 2
left_child=1 -1 -2
right_child=2 -3 -4
leaf_value=0.14243950394247973 -0.14243950394247973 0.14243950394247973 -0.14243950394247973
leaf_weight=23.845930248498917 112.74523161351681 96.429595127701759 7.5302937626838675
leaf_count=114 539 461 36
internal_value=0 0.14244 -0.14244
internal_weight=240.551 120.276 120.276
internal_count=1150 575 575
is_linear=0
shrinkage=0.1


Tree=6
num_leaves=5
num_cat=0
split_feature=10 0 0 0
split_gain=423.26 2.84217e-14 2.84217e-14 2.84217e-14
threshold=1.0000000180025095e-35 0.57229893983767821 1.4536026209125086 1.1188391853144235
decision_type=2 2 2 2
left_child=1 -1 3 -2
right_child=2 -3 -4 -5
leaf_value=0.1368052435697113 -0.1368052435697113 0.1368052435697113 -0.1368052435697113 -0.1368052435697113
leaf_weight=69.419085338711739 97.344043180346489 43.657328456640244 4.5230565518140784 11.209314063191412
leaf_count=353 495 222 23 57
internal_value=0 0.136805 -0.136805 -0.136805
internal_weight=226.153 113.076 113.076 108.553
internal_count=1150 575 575 552
is_linear=0
shrinkage=0.1


Tree=7
num_leaves=4
num_cat=0
split_feature=10 0 1
split_gain=369.142 5.68434e-14 5.68434e-14
threshold=1.0000000180025095e-35 1.4214430045814976 1.5842516406295672
decision_type=2 2 2
left_child=2 -2 -1
right_child=1 -3 -4
leaf_value=0.13209932398403795 -0.13209932398403795 -0.13209932398403795 0.13209932398403795
leaf_weight=100.61947192251682 101.35526330769062 4.4147483110427848 5.1505396962165824
leaf_count=547 551 24 28
internal_value=0 -0.132099 0.132099
internal_weight=211.54 105.77 105.77
internal_count=1150 575 575
is_linear=0
shrinkage=0.1


Tree=8
num_leaves=4
num_cat=0
split_feature=10 0 0
split_gain=323.462 2.84217e-14 2.84217e-14
threshold=1.0000000180025095e-35 -0.1349282483108227 1.4720156416747179
decision_type=2 2 2
left_child=1 -1 -2
right_child=2 -3 -4
leaf_value=0.12812716232731389 -0.12812716232731389 0.12812716232731389 -0.12812716232731389
leaf_weight=41.291486442089081 94.7476846575737 57.225545525550842 3.7693473100662223
leaf_count=241 553 334 22
internal_value=0 0.128127 -0.128127
internal_weight=197.034 98.517 98.517
internal_count=1150 575 575
is_linear=0
shrinkage=0.1


Tree=9
num_leaves=2
num_cat=0
split_feature=10
split_gain=284.563
threshold=1.0000000180025095e-35
decision_type=2
left_child=-1
right_child=-2
leaf_value=0.12474463502320948 -0.12474463502320948
leaf_weight=91.433444991707802 91.433444991707802
leaf_count=575 575
internal_value=0
internal_weight=182.867
internal_count=1150
is_linear=0
shrinkage=0.1


Tree=10
num_leaves=4
num_cat=0
split_feature=10 0 0
split_gain=251.19 2.84217e-14 2.84217e-14
threshold=1.0000000180025095e-35 -0.48573281563422138 1.3898699188666581
decision_type=2 2 2
left_child=1 -1 -2
right_child=2 -3 -4
leaf_value=0.12184263134723478 -0.12184263134723478 0.12184263134723478 -0.12184263134723478
leaf_weight=24.42387643456459 80.628218591213226 60.176900371909142 3.9725582152605048
leaf_count=166 548 409 27
internal_value=0 0.121843 -0.121843
internal_weight=169.202 84.6008 84.6008
internal_count=1150 575 575
is_linear=0
shrinkage=0.1


Tree=11
num_leaves=4
num_cat=0
split_feature=10 0 1
split_gain=222.376 1.42109e-14 1.42109e-14
threshold=1.0000000180025095e-35 1.1468326265277284 1.2765576981480398
decision_type=2 2 2
left_child=2 -2 -1
right_child=1 -3 -4
leaf_value=0.11933702300158547 -0.11933702300158547 -0.11933702300158547 0.11933702300158547
leaf_weight=66.12536396086216 67.89051741361618 10.183577612042425 11.948731064796446
leaf_count=487 500 75 88
internal_value=0 -0.119337 0.119337
internal_weight=156.148 78.0741 78.0741
internal_count=1150 575 575
is_linear=0
shrinkage=0.1


Tree=12
num_leaves=5
num_cat=0
split_feature=10 0 1 0
split_gain=197.36 1.42109e-14 1.42109e-14 1.77636e-15
threshold=1.0000000180025095e-35 1.1956986917329595 -1.2540217985766458 1.4868464168146207
decision_type=2 2 2 2
left_child=2 -2 -1 -3
right_child=1 3 -4 -5
leaf_value=0.11716177659130814 -0.11716177659130814 -0.11716177659130816 0.11716177659130814 -0.11716177659130809
leaf_weight=8.6265926510095579 63.511725604534149 5.8760848492383939 63.261679440736771 2.5004616379737854
leaf_count=69 508 47 506 20
internal_value=0 -0.117162 0.117162 -0.117162
internal_weight=143.777 71.8883 71.8883 8.37655
internal_count=1150 575 575 67
is_linear=0
shrinkage=0.1


Tree=13
num_leaves=4
num_cat=0
split_feature=10 0 1
split_gain=175.54 1.42109e-14 1.42109e-14
threshold=1.0000000180025095e-35 1.3992699204803887 -1.3239314711443309
decision_type=2 2 2
left_child=2 -2 -1
right_child=1 -3 -4
leaf_value=0.11526438995110283 -0.11526438995110283 -0.11526438995110283 0.11526438995110283
leaf_weight=6.5488332957029334 63.075604900717735 2.9871871173381797 59.513958722352982
leaf_count=57 549 26 518
internal_value=0 -0.115264 0.115264
internal_weight=132.126 66.0628 66.0628
internal_count=1150 575 575
is_linear=0
shrinkage=0.1


Tree=14
num_leaves=2
num_cat=0
split_feature=10
split_gain=156.429
threshold=1.0000000180025095e-35
decision_type=2
left_child=-1
right_child=-2
leaf_value=0.11360256224201973 -0.11360256224201973
leaf_weight=60.605533234775066 60.605533234775066
leaf_count=575 575
internal_value=0
internal_weight=121.211
internal_count=1150
is_linear=0
shrinkage=0.1


Tree=15
num_leaves=2
num_cat=0
split_feature=10
split_gain=139.631
threshold=1.0000000180025095e-35
decision_type=2
left_child=-1
right_child=-2
leaf_value=0.11214181150601801 -0.11214181150601801
leaf_weight=55.515771731734276 55.515771731734276
leaf_count=575 575
internal_value=0
internal_weight=111.032
internal_count=1150
is_linear=0
shrinkage=0.1


Tree=16
num_leaves=4
num_cat=0
split_feature=10 0 1
split_gain=124.819 7.10543e-15 7.10543e-15
threshold=1.0000000180025095e-35 1.3834341306869311 1.5842516406295672
decision_type=2 2 2
left_child=2 -2 -1
right_child=1 -3 -4
leaf_value=0.11085378572722815 -0.11085378572722815 -0.11085378572722815 0.11085378572722815
leaf_weight=48.313380390405655 48.313380390405655 2.473079800605773 2.473079800605773
leaf_count=547 547 28 28
internal_value=0 -0.110854 0.110854
internal_weight=101.573 50.7865 50.7865
internal_count=1150 575 575
is_linear=0
shrinkage=0.1


Tree=17
num_leaves=7
num_cat=0
split_feature=10 1 0 1 1 2
split_gain=111.721 1.42109e-14 7.10543e-15 1.77636e-15 8.88178e-16 4.44089e-16
threshold=1.0000000180025095e-35 -1.4672793538446607 1.2977985203556013 0.59609013962740531 -0.29164759863540285 0.24725106423373669
decision_type=2 2 2 2 2 2
left_child=2 -2 -1 4 5 -4
right_child=1 -3 3 -5 -6 -7
leaf_value=0.10971489632761583 -0.10971489632761583 -0.10971489632761583 0.10971489632761573 0.10971489632761577 0.10971489632761583 0.10971489632761576
leaf_weight=38.416141271591187 3.2282471656799308 43.177805840969086 1.6948297619819643 2.3404791951179504 2.3404791951179496 1.6141235828399656
leaf_count=476 40 535 21 29 29 20
internal_value=0 -0.109715 0.109715 0.109715 0.109715 0.109715
internal_weight=92.8121 46.4061 46.4061 7.98991 5.64943 3.30895
internal_count=1150 575 575 99 70 41
is_linear=0
shrinkage=0.1


Tree=18
num_leaves=4
num_cat=0
split_feature=10 0 0
split_gain=100.112 7.10543e-15 7.10543e-15
threshold=1.0000000180025095e-35 -0.1349282483108227 1.3404848066563015
decision_type=2 2 2
left_child=1 -1 -2
right_child=2 -3 -4
leaf_value=0.10870541965264652 -0.10870541965264652 0.10870541965264652 -0.10870541965264652
leaf_weight=17.754320926964283 39.928804740309715 24.605573400855064 2.4310895875096312
leaf_count=241 542 334 33
internal_value=0 0.108705 -0.108705
internal_weight=84.7198 42.3599 42.3599
internal_count=1150 575 575
is_linear=0
shrinkage=0.1


Tree=19
num_leaves=6
num_cat=0
split_feature=10 0 1 2 2
split_gain=89.8001 7.10543e-15 7.10543e-15 8.88178e-16 8.88178e-16
threshold=1.0000000180025095e-35 1.4868464168146207 1.2765576981480398 1.040793246172431 -0.92852352217222489
decision_type=2 2 2 2 2
left_child=2 -2 -1 4 -4
right_child=1 -3 3 -5 -6
leaf_value=0.10780871339757432 -0.10780871339757432 -0.10780871339757432 0.10780871339757425 0.10780871339757425 0.10780871339757432
leaf_weight=32.719033114612103 37.287604473531246 1.3436974585056294 1.5452520772814748 1.6124369502067564 2.7545797899365416
leaf_count=487 555 20 23 24 41
internal_value=0 -0.107809 0.107809 0.107809 0.107809
internal_weight=77.2626 38.6313 38.6313 5.91227 4.29983
internal_count=1150 575 575 88 64
is_linear=0
shrinkage=0.1


Tree=20
num_leaves=10
num_cat=0
split_feature=10 0 0 0 0 0 0 1 2
split_gain=80.6225 7.10543e-15 7.10543e-15 7.10543e-15 7.10543e-15 7.10543e-15 3.55271e-15 1.77636e-15 1.77636e-15
threshold=1.0000000180025095e-35 1.2977985203556013 -0.48573281563422138 1.4774363624806501 1.2732082501816218 -0.15420632710904572 0.22766691231886124 0.79875953622349594 -0.99494011998068099
decision_type=2 2 2 2 2 2 2 2 2
left_child=1 2 8 4 5 -2 7 -4 -1
right_child=3 -3 6 -5 -6 -7 -8 -9 -10
leaf_value=0.10701065593122568 -0.10701065593122568 0.10701065593122568 0.10701065593122563 -0.10701065593122568 -0.10701065593122568 -0.10701065593122566 0.10701065593122568 0.10701065593122563 0.10701065593122563
leaf_weight=1.5917608141899098 16.591045409440994 6.0609354078769675 5.69360598921776 1.2856529653072346 2.2039765119552603 15.121727734804155 10.958660989999769 2.3264196515083313 8.5710197687149066
leaf_count=26 271 99 93 21 36 247 179 38 140
internal_value=0 0.107011 0.107011 -0.107011 -0.107011 -0.107011 0.107011 0.107011 0.107011
internal_weight=70.4048 35.2024 29.1415 35.2024 33.9167 31.7128 18.9787 8.02003 10.1628
internal_count=1150 575 476 575 554 518 310 131 166
is_linear=0
shrinkage=0.1


Tree=21
num_leaves=2
num_cat=0
split_feature=10
split_gain=72.4406
threshold=1.0000000180025095e-35
decision_type=2
left_child=-1
right_child=-2
leaf_value=0.10629918365868618 -0.10629918365868618
leaf_weight=32.054744847118855 32.054744847118855
leaf_count=575 575
internal_value=0
internal_weight=64.1095
internal_count=1150
is_linear=0
shrinkage=0.1


Tree=22
num_leaves=2
num_cat=0
split_feature=10
split_gain=65.1354
threshold=1.0000000180025095e-35
decision_type=2
left_child=-1
right_child=-2
leaf_value=0.10566394512104493 -0.10566394512104493
leaf_weight=29.169795662164688 29.169795662164688
leaf_count=575 575
internal_value=0
internal_weight=58.3396
internal_count=1150
is_linear=0
shrinkage=0.1


Tree=23
num_leaves=11
num_cat=0
split_feature=10 0 0 2 2 6 6 4 4 8
split_gain=58.6041 3.55271e-15 3.55271e-15 3.55271e-15 3.55271e-15 1.77636e-15 1.77636e-15 8.88178e-16 4.44089e-16 4.44089e-16
threshold=1.0000000180025095e-35 1.1519607553014175 0.62689035011371941 1.331615372971843 -0.14595176371546972 1.4763746459619689 1.1697448030145692 0.53184528787685215 -0.27712709337522801 -0.11480433235580921
decision_type=2 2 2 2 2 2 2 2 2 2
left_child=3 2 -2 4 5 6 -1 8 -4 -3
right_child=1 9 7 -5 -6 -7 -8 -9 -10 -11
leaf_value=0.10509600333111585 -0.10509600333111585 -0.10509600333111585 -0.10509600333111575 0.10509600333111589 0.10509600333111589 0.10509600333111568 0.10509600333111574 -0.10509600333111585 -0.10509600333111585 -0.10509600333111585
leaf_weight=10.058054707944395 19.147214237600572 2.1223418191075325 0.92275731265544891 3.4142020568251601 10.796260558068751 0.96889517828822214 1.2918602377176291 2.1223418191075325 0.92275731265544825 1.2918602377176278
leaf_count=218 415 46 20 74 234 21 28 46 20 28
internal_value=0 -0.105096 -0.105096 0.105096 0.105096 0.105096 0.105096 -0.105096 -0.105096 -0.105096
internal_weight=53.0585 26.5293 23.1151 26.5293 23.1151 12.3188 11.3499 3.96786 1.84551 3.4142
internal_count=1150 575 501 575 501 267 246 86 40 74
is_linear=0
shrinkage=0.1


Tree=24
num_leaves=4
num_cat=0
split_feature=10 0 0
split_gain=52.7576 3.55271e-15 3.55271e-15
threshold=1.0000000180025095e-35 1.6372094683518785 1.403487607128582
decision_type=2 2 2
left_child=1 -1 -2
right_child=2 -3 -4
leaf_value=0.10458761393978044 -0.10458761393978044 0.10458761393978047 -0.10458761393978047
leaf_weight=22.01841585338116 23.066911846399311 2.0969919860362998 1.0484959930181492
leaf_count=525 550 50 25
internal_value=0 0.104588 -0.104588
internal_weight=48.2308 24.1154 24.1154
internal_count=1150 575 575
is_linear=0
shrinkage=0.1


Tree=25
num_leaves=5
num_cat=0
split_feature=10 0 0 2
split_gain=47.5186 3.55271e-15 3.55271e-15 3.55271e-15
threshold=1.0000000180025095e-35 0.22766691231886124 1.4774363624806501 -0.65492800651378091
decision_type=2 2 2 2
left_child=1 -1 3 -2
right_child=2 -3 -4 -5
leaf_value=0.10413205333539802 -0.10413205333539795 0.10413205333539804 -0.10413205333539804 -0.10413205333539804
leaf_weight=11.31756776198745 5.4873055815696761 10.593548275530337 0.80023206397890945 15.623578391969204
leaf_count=297 144 278 21 410
internal_value=0 0.104132 -0.104132 -0.104132
internal_weight=43.8222 21.9111 21.9111 21.1109
internal_count=1150 575 575 554
is_linear=0
shrinkage=0.1


Tree=26
num_leaves=2
num_cat=0
split_feature=10
split_gain=42.8193
threshold=1.0000000180025095e-35
decision_type=2
left_child=-1
right_child=-2
leaf_value=0.10372341650791615 -0.10372341650791615
leaf_weight=19.900122098624706 19.900122098624706
leaf_count=575 575
internal_value=0
internal_weight=39.8002
internal_count=1150
is_linear=0
shrinkage=0.1


Tree=27
num_leaves=2
num_cat=0
split_feature=10
split_gain=38.6005
threshold=1.0000000180025095e-35
decision_type=2
left_child=-1
right_child=-2
leaf_value=0.10335657600081949 -0.10335657600081949
leaf_weight=18.067026883363724 18.067026883363724
leaf_count=575 575
internal_value=0
internal_weight=36.1341
internal_count=1150
is_linear=0
shrinkage=0.1


Tree=28
num_leaves=9
num_cat=0
split_feature=10 0 0 0 0 1 2 0
split_gain=34.8101 3.55271e-15 3.55271e-15 3.55271e-15 1.77636e-15 1.77636e-15 1.77636e-15 4.44089e-16
threshold=1.0000000180025095e-35 1.6372094683518785 1.4868464168146207 1.0413125198823436 0.57229893983767821 1.5468243641645156 1.5186167622030913 1.2021680280111304
decision_type=2 2 2 2 2 2 2 2
left_child=1 4 3 -2 5 6 -1 -5
right_child=2 -3 -4 7 -6 -7 -8 -9
leaf_value=0.10302697128541223 -0.10302697128541219 0.10302697128541205 -0.10302697128541186 -0.10302697128541186 0.10302697128541215 0.1030269712854119 0.10302697128541186 -0.10302697128541212
leaf_weight=8.8403134234249539 13.80229579657316 1.4258570037782199 0.57034280151128847 0.71292850188911083 4.904948092997075 0.65589422173798162 0.57034280151128847 1.3117884434759615
leaf_count=310 484 50 20 25 172 23 20 46
internal_value=0 0.103027 -0.103027 -0.103027 0.103027 0.103027 0.103027 -0.103027
internal_weight=32.7947 16.3974 16.3974 15.827 14.9715 10.0666 9.41066 2.02472
internal_count=1150 575 575 555 525 353 330 71
is_linear=0
shrinkage=0.1


Tree=29
num_leaves=10
num_cat=0
split_feature=10 3 1 1 6 0 3 0 6
split_gain=31.4023 3.55271e-15 1.77636e-15 1.77636e-15 1.77636e-15 8.88178e-16 8.88178e-16 2.22045e-16 2.22045e-16
threshold=1.0000000180025095e-35 -0.034713566657524252 -0.9096240217498327 1.5468243641645156 1.3079241282774607 0.68080224138861933 0.19816291084087312 1.2233873793485643 1.529295987226251
decision_type=2 2 2 2 2 2 2 2 2
left_child=2 -2 -1 4 -4 6 -3 -7 -6
right_child=1 5 3 -5 8 7 -8 -9 -10
leaf_value=0.10273063016458275 -0.10273063016458275 -0.10273063016458275 0.10273063016458275 0.10273063016458257 0.10273063016458256 -0.10273063016458264 -0.10273063016458273 -0.10273063016458264 0.1027306301645826
leaf_weight=3.3377479277551165 8.5642989464104158 0.62097635865211387 9.0817792452871782 0.98321256786584932 0.82796847820282049 0.72447241842746712 4.113968376070261 0.85384249314665794 0.64685037359595299
leaf_count=129 331 24 351 38 32 28 159 33 25
internal_value=0 -0.102731 0.102731 0.102731 0.102731 -0.102731 -0.102731 -0.102731 0.102731
internal_weight=29.7551 14.8776 14.8776 11.5398 10.5566 6.31326 4.73494 1.57831 1.47482
internal_count=1150 575 575 446 408 244 183 61 57
is_linear=0
shrinkage=0.1


Tree=30
num_leaves=6
num_cat=0
split_feature=10 1 2 2 2
split_gain=28.3365 1.77636e-15 1.77636e-15 4.44089e-16 2.22045e-16
threshold=1.0000000180025095e-35 -0.45785507337768183 -1.0948427765484838 -1.4248002987583226 -1.5602130400281604
decision_type=2 2 2 2 2
left_child=2 -2 3 4 -1
right_child=1 -3 -4 -5 -6
leaf_value=0.10246404444141782 -0.10246404444141802 -0.10246404444141802 0.10246404444141799 0.10246404444141802 0.1024640444414178
leaf_weight=0.46939171850681305 5.4214743487536898 8.0735375583171827 11.07764455676079 1.3847055695950974 0.56327006220817588
leaf_count=20 231 344 472 59 24
internal_value=0 -0.102464 0.102464 0.102464 0.102464
internal_weight=26.99 13.495 13.495 2.41737 1.03266
internal_count=1150 575 575 103 44
is_linear=0
shrinkage=0.1


Tree=31
num_leaves=6
num_cat=0
split_feature=10 0 1 0 2
split_gain=25.5768 3.55271e-15 3.55271e-15 1.77636e-15 4.44089e-16
threshold=1.0000000180025095e-35 1.3834341306869311 1.5842516406295672 0.75709248191325773 -0.92579271405841224
decision_type=2 2 2 2 2
left_child=2 3 -1 -2 -5
right_child=1 -3 -4 4 -6
leaf_value=0.10222407114423182 -0.10222407114423189 -0.10222407114423154 0.10222407114423154 -0.10222407114423158 -0.10222407114423177
leaf_weight=11.642060179263353 9.1306102685630268 0.59593726694583971 0.59593726694583971 0.48951989784836802 2.0219300128519544
leaf_count=547 429 28 28 23 95
internal_value=0 -0.102224 0.102224 -0.102224 -0.102224
internal_weight=24.476 12.238 12.238 11.6421 2.51145
internal_count=1150 575 575 547 118
is_linear=0
shrinkage=0.1


Tree=32
num_leaves=4
num_cat=0
split_feature=10 0 0
split_gain=23.0915 1.77636e-15 1.77636e-15
threshold=1.0000000180025095e-35 1.3068345188258348 1.1798762161238063
decision_type=2 2 2
left_child=-1 2 -2
right_child=1 -3 -4
leaf_value=0.10200795490764672 -0.10200795490764679 -0.10200795490764647 -0.10200795490764647
leaf_weight=11.095663625746967 9.7641839906573242 0.67538822069764215 0.65609141439199525
leaf_count=575 506 35 34
internal_value=0 -0.102008 -0.102008
internal_weight=22.1913 11.0957 10.4203
internal_count=1150 575 540
is_linear=0
shrinkage=0.1


Tree=33
num_leaves=10
num_cat=0
split_feature=10 1 0 0 6 6 0 0 1
split_gain=20.8521 3.55271e-15 1.77636e-15 1.77636e-15 1.77636e-15 1.77636e-15 2.22045e-16 1.11022e-16 1.11022e-16
threshold=1.0000000180025095e-35 1.2207935925782867 1.6372094683518785 1.1871252733698292 1.5037614953175009 -1.4680873921153277 1.4536026209125086 0.22766691231886124 0.31759401061939524
decision_type=2 2 2 2 2 2 2 2 2
left_child=2 3 4 -2 5 -1 -5 -3 -4
right_child=1 7 8 6 -6 -7 -8 -9 -10
leaf_value=0.10181321847770577 -0.10181321847770582 -0.1018132184777053 0.10181321847770541 -0.10181321847770548 0.10181321847770541 0.10181321847770577 -0.10181321847770548 -0.10181321847770548 0.10181321847770548
leaf_weight=0.59473370015621085 8.3087796345353073 0.40231985598802644 0.52476502954959947 0.6472102031111725 0.50727286189794618 8.0813814550638181 0.3498433530330658 0.3498433530330658 0.3498433530330658
leaf_count=34 475 23 30 37 29 462 20 20 20
internal_value=0 -0.101813 0.101813 -0.101813 0.101813 0.101813 -0.101813 -0.101813 0.101813
internal_weight=20.116 10.058 10.058 9.30583 9.18339 8.67612 0.997054 0.752163 0.874608
internal_count=1150 575 575 532 525 496 57 43 50
is_linear=0
shrinkage=0.1


Tree=34
num_leaves=7
num_cat=0
split_feature=10 0 0 6 6 0
split_gain=18.8336 3.55271e-15 1.77636e-15 4.44089e-16 4.44089e-16 1.11022e-16
threshold=1.0000000180025095e-35 1.2849913221629981 -0.48573281563422138 -1.3293569072420446 -0.9436698051678315 1.4214430045814976
decision_type=2 2 2 2 2 2
left_child=2 -2 3 -1 -5 -3
right_child=1 5 -4 4 -6 -7
leaf_value=0.10163770747741074 -0.10163770747741119 -0.10163770747741081 0.10163770747741115 0.10163770747741063 0.10163770747741115 -0.10163770747741091
leaf_weight=0.31707018613815341 8.2279713302850688 0.5073122978210457 6.4840853065252322 0.33292369544506151 1.9816886633634561 0.38048422336578369
leaf_count=20 519 32 409 21 125 24
internal_value=0 -0.101638 0.101638 0.101638 0.101638 -0.101638
internal_weight=18.2315 9.11577 9.11577 2.63168 2.31461 0.887797
internal_count=1150 575 575 166 146 56
is_linear=0
shrinkage=0.1


Tree=35
num_leaves=2
num_cat=0
split_feature=10
split_gain=17.0134
threshold=1.0000000180025095e-35
decision_type=2
left_child=-1
right_child=-2
leaf_value=0.10147943037564376 -0.1014794303756438
leaf_weight=8.2604976370930689 8.2604976370930654
leaf_count=575 575
internal_value=0
internal_weight=16.521
internal_count=1150
is_linear=0
shrinkage=0.1


Tree=36
num_leaves=7
num_cat=0
split_feature=10 0 1 2 2 2
split_gain=15.3716 8.88178e-16 8.88178e-16 8.88178e-16 2.22045e-16 1.11022e-16
threshold=1.0000000180025095e-35 1.4774363624806501 1.1406095655720927 0.15998171355472954 0.72046962129643155 -0.52521880836576307
decision_type=2 2 2 2 2 2
left_child=2 3 -1 -2 5 -4
right_child=1 -3 4 -5 -6 -7
leaf_value=0.10133666518796239 -0.10133666518796239 -0.10133666518796208 0.10133666518796221 -0.10133666518796236 0.10133666518796219 0.10133666518796219
leaf_weight=6.0526030138134956 4.2303139343857765 0.27334336191415776 0.54668672382831573 2.9807442799210548 0.50763767212629318 0.37747416645288445
leaf_count=465 325 21 42 229 39 29
internal_value=0 -0.101337 0.101337 -0.101337 0.101337 0.101337
internal_weight=14.9688 7.4844 7.4844 7.21106 1.4318 0.924161
internal_count=1150 575 575 554 110 71
is_linear=0
shrinkage=0.1


Tree=37
num_leaves=4
num_cat=0
split_feature=10 0 1
split_gain=13.8903 8.88178e-16 8.88178e-16
threshold=1.0000000180025095e-35 1.1956986917329595 1.3396288485007461
decision_type=2 2 2
left_child=2 -2 -1
right_child=1 -3 -4
leaf_value=0.10120785390948045 -0.10120785390948045 -0.10120785390948035 0.10120785390948035
leaf_weight=5.8841621829196811 5.990289356559515 0.79005784820765246 0.89618502184748638
leaf_count=499 508 67 76
internal_value=0 -0.101208 0.101208
internal_weight=13.5607 6.78035 6.78035
internal_count=1150 575 575
is_linear=0
shrinkage=0.1


Tree=38
num_leaves=4
num_cat=0
split_feature=10 2 2
split_gain=12.5533 1.77636e-15 1.77636e-15
threshold=1.0000000180025095e-35 -1.5262707693966557 -1.2787736417763393
decision_type=2 2 2
left_child=1 -1 -2
right_child=2 -3 -4
leaf_value=0.10109158778569081 -0.10109158778569081 0.10109158778569112 -0.10109158778569112
leaf_weight=0.27771657146513451 0.27771657146513451 5.8640922205522656 5.8640922205522656
leaf_count=26 26 549 549
internal_value=0 0.101092 -0.101092
internal_weight=12.2836 6.14181 6.14181
internal_count=1150 575 575
is_linear=0
shrinkage=0.1


Tree=39
num_leaves=4
num_cat=0
split_feature=10 0 0
split_gain=11.3463 8.88178e-16 8.88178e-16
threshold=1.0000000180025095e-35 1.6372094683518785 1.4720156416747179
decision_type=2 2 2
left_child=1 -1 -2
right_child=2 -3 -4
leaf_value=0.10098663028838502 -0.10098663028838502 0.10098663028838487 -0.10098663028838462
leaf_weight=5.0790967186912894 5.3499818770214915 0.48372349701821793 0.21283833868801583
leaf_count=525 553 50 22
internal_value=0 0.100987 -0.100987
internal_weight=11.1256 5.56282 5.56282
internal_count=1150 575 575
is_linear=0
shrinkage=0.1


Tree=40
num_leaves=4
num_cat=0
split_feature=10 0 0
split_gain=10.2564 8.88178e-16 8.88178e-16
threshold=1.0000000180025095e-35 -0.1349282483108227 1.403487607128582
decision_type=2 2 2
left_child=1 -1 -2
right_child=2 -3 -4
leaf_value=0.10089186280423797 -0.10089186280423799 0.10089186280423799 -0.10089186280423759
leaf_weight=2.111552027054131 4.8188946675509214 2.9263833072036505 0.21904066670685995
leaf_count=241 550 334 25
internal_value=0 0.100892 -0.100892
internal_weight=10.0759 5.03794 5.03794
internal_count=1150 575 575
is_linear=0
shrinkage=0.1


Tree=41
num_leaves=4
num_cat=0
split_feature=10 2 2
split_gain=9.2721 8.88178e-16 8.88178e-16
threshold=1.0000000180025095e-35 -1.5262707693966557 -1.2787736417763393
decision_type=2 2 2
left_child=1 -1 -2
right_child=2 -3 -4
leaf_value=0.10080626134333182 -0.10080626134333182 0.10080626134333225 -0.10080626134333225
leaf_weight=0.20629015937447537 0.20629015937447537 4.3558960575610399 4.3558960575610399
leaf_count=26 26 549 549
internal_value=0 0.100806 -0.100806
internal_weight=9.12437 4.56219 4.56219
internal_count=1150 575 575
is_linear=0
shrinkage=0.1


Tree=42
num_leaves=4
num_cat=0
split_feature=10 0 1
split_gain=8.38298 8.88178e-16 8.88178e-16
threshold=1.0000000180025095e-35 1.4868464168146207 -1.5211917566848816
decision_type=2 2 2
left_child=2 -2 -1
right_child=1 -3 -4
leaf_value=0.10072895278937521 -0.10072895278937576 -0.10072895278937516 0.10072895278937576
leaf_weight=0.15805733762681473 3.9873555628582835 0.14368848875164975 3.9729867139831185
leaf_count=22 555 20 553
internal_value=0 -0.100729 0.100729
internal_weight=8.26209 4.13104 4.13104
internal_count=1150 575 575
is_linear=0
shrinkage=0.1


Tree=43
num_leaves=4
num_cat=0
split_feature=10 0 1
split_gain=7.57971 8.88178e-16 8.88178e-16
threshold=1.0000000180025095e-35 0.54787940212360253 0.79875953622349594
decision_type=2 2 2
left_child=2 -2 -1
right_child=1 -3 -4
leaf_value=0.10065910400425382 -0.10065910400425382 -0.10065910400425378 0.10065910400425378
leaf_weight=2.6410371595993642 2.6085120714269583 1.1318730683997271 1.0993479802273212
leaf_count=406 401 174 169
internal_value=0 -0.100659 0.100659
internal_weight=7.48077 3.74039 3.74039
internal_count=1150 575 575
is_linear=0
shrinkage=0.1


Tree=44
num_leaves=6
num_cat=0
split_feature=10 0 1 1 2
split_gain=6.85388 4.44089e-16 4.44089e-16 2.22045e-16 5.55112e-17
threshold=1.0000000180025095e-35 1.4214430045814976 0.45902515057703519 1.4062593516785291 -0.61077376858114751
decision_type=2 2 2 2 2
left_child=2 -2 -1 -4 -5
right_child=1 -3 3 4 -6
leaf_value=0.10059598753279278 -0.10059598753279281 -0.1005959875327922 0.10059598753279275 0.10059598753279203 0.10059598753279245
leaf_weight=2.1202158182859425 3.2451080996543173 0.14134772121906269 0.88931274600326993 0.12367925606667995 0.25324800051748753
leaf_count=360 551 24 151 21 43
internal_value=0 -0.100596 0.100596 0.100596 0.100596
internal_weight=6.77291 3.38646 3.38646 1.26624 0.376927
internal_count=1150 575 575 215 64
is_linear=0
shrinkage=0.1


Tree=45
num_leaves=4
num_cat=0
split_feature=10 0 0
split_gain=6.19796 4.44089e-16 4.44089e-16
threshold=1.0000000180025095e-35 1.6372094683518785 1.372039919270561
decision_type=2 2 2
left_child=1 -1 -2
right_child=2 -3 -4
leaf_value=0.10053895288504984 -0.10053895288504984 0.10053895288504955 -0.10053895288504933
leaf_weight=2.7992469957098369 2.9058849764987831 0.26659495197236527 0.15995697118341912
leaf_count=525 545 50 30
internal_value=0 0.100539 -0.100539
internal_weight=6.13168 3.06584 3.06584
internal_count=1150 575 575
is_linear=0
shrinkage=0.1


Tree=46
num_leaves=7
num_cat=0
split_feature=10 0 1 0 0 0
split_gain=5.60512 4.44089e-16 4.44089e-16 2.22045e-16 2.22045e-16 2.22045e-16
threshold=1.0000000180025095e-35 0.12943988355894162 0.45902515057703519 -0.056451356346033287 -0.1349282483108227 1.3898699188666581
decision_type=2 2 2 2 2 2
left_child=2 3 -1 4 -2 -3
right_child=1 5 -4 -5 -6 -7
leaf_value=0.10048740143222037 -0.1004874014322204 -0.10048740143222037 0.10048740143222037 -0.10048740143221907 -0.10048740143222 -0.10048740143221978
leaf_weight=1.7376662604510786 1.3177302475087342 1.0425997562706468 1.0377729055471716 0.096537014469504689 0.18824717821553338 0.13032496953383077
leaf_count=360 273 216 215 20 39 27
internal_value=0 -0.100487 0.100487 -0.100487 -0.100487 -0.100487
internal_weight=5.55088 2.77544 2.77544 1.60251 1.50598 1.17292
internal_count=1150 575 575 332 312 243
is_linear=0
shrinkage=0.1


Tree=47
num_leaves=5
num_cat=0
split_feature=10 0 2 6
split_gain=5.06925 4.44089e-16 4.44089e-16 4.44089e-16
threshold=1.0000000180025095e-35 -1.3886751841764151 -1.3512961318525811 -1.5009430050179158
decision_type=2 2 2 2
left_child=2 -2 -1 -4
right_child=1 -3 3 -5
leaf_value=0.10044080450178552 -0.10044080450178516 -0.10044080450178601 0.10044080450178478 0.10044080450178604
leaf_weight=0.25779687892645631 0.15293035190552506 2.359496857970953 0.1398220360279091 2.114808294922113
leaf_count=59 35 540 32 484
internal_value=0 -0.100441 0.100441 0.100441
internal_weight=5.02485 2.51243 2.51243 2.25463
internal_count=1150 575 575 516
is_linear=0
shrinkage=0.1


Tree=48
num_leaves=6
num_cat=0
split_feature=10 0 0 2 0
split_gain=4.58483 4.44089e-16 4.44089e-16 4.44089e-16 2.22045e-16
threshold=1.0000000180025095e-35 0.22766691231886124 1.4774363624806501 -1.4810144085546497 -0.1349282483108227
decision_type=2 2 2 2 2
left_child=1 3 -2 -1 -5
right_child=2 -3 -4 4 -6
leaf_value=0.10039868185275172 -0.10039868185275268 0.10039868185275265 -0.10039868185275168 0.10039868185275264 0.10039868185275209
leaf_weight=0.087014529854059108 2.1911840699613099 1.0995472408831117 0.083059323951601871 0.87805571034550656 0.20962591283023391
leaf_count=22 554 278 21 222 53
internal_value=0 0.100399 -0.100399 0.100399 0.100399
internal_weight=4.54849 2.27424 2.27424 1.1747 1.08768
internal_count=1150 575 575 297 275
is_linear=0
shrinkage=0.1


Tree=49
num_leaves=2
num_cat=0
split_feature=10
split_gain=4.14687
threshold=1.0000000180025095e-35
decision_type=2
left_child=-1
right_child=-2
leaf_value=0.10036059702750516 -0.10036059702750516
leaf_weight=2.058561728335917 2.058561728335917
leaf_count=575 575
internal_value=0
internal_weight=4.11712
internal_count=1150
is_linear=0
shrinkage=0.1


Tree=50
num_leaves=7
num_cat=0
split_feature=10 0 0 0 1 1
split_gain=3.75089 2.22045e-16 2.22045e-16 2.22045e-16 1.11022e-16 1.11022e-16
threshold=1.0000000180025095e-35 -0.1349282483108227 0.65384979829760292 0.14597278718573775 1.4729576123976345 1.2765576981480398
decision_type=2 2 2 2 2 2
left_child=1 4 3 -2 5 -1
right_child=2 -3 -4 -5 -6 -7
leaf_value=0.10032615988516491 -0.10032615988516497 0.10032615988516494 -0.10032615988516487 -0.10032615988516475 0.10032615988516372 0.10032615988516352
leaf_weight=0.64161312114447344 1.0823170831426976 1.082317083142698 0.49903242755681265 0.281920916866511 0.074530817102640867 0.06480940617620945
leaf_count=198 334 334 154 87 23 20
internal_value=0 0.100326 -0.100326 -0.100326 0.100326 0.100326
internal_weight=3.72654 1.86327 1.86327 1.36424 0.780953 0.706423
internal_count=1150 575 575 421 241 218
is_linear=0
shrinkage=0.1


Tree=51
num_leaves=4
num_cat=0
split_feature=10 0 1
split_gain=3.39284 2.22045e-16 2.22045e-16
threshold=1.0000000180025095e-35 0.20792421810626441 -0.9096240217498327
decision_type=2 2 2
left_child=2 -2 -1
right_child=1 -3 -4
leaf_value=0.10029503105466771 -0.10029503105466786 -0.1002950310546678 0.10029503105466785
leaf_weight=0.37835219199769188 0.99720732774585463 0.68924624123610556 1.3081013769842686
leaf_count=129 340 235 446
internal_value=0 -0.100295 0.100295
internal_weight=3.37291 1.68645 1.68645
internal_count=1150 575 575
is_linear=0
shrinkage=0.1


Tree=52
num_leaves=4
num_cat=0
split_feature=10 0 0
split_gain=3.06906 2.22045e-16 2.22045e-16
threshold=1.0000000180025095e-35 0.22766691231886124 0.40280676099211182
decision_type=2 2 2
left_child=1 -1 -2
right_child=2 -3 -4
leaf_value=0.10026687410580011 -0.10026687410580018 0.10026687410580014 -0.10026687410580011
leaf_weight=0.7884048465639355 1.0113880354911087 0.73796817287802696 0.51498498395085324
leaf_count=297 381 278 194
internal_value=0 0.100267 -0.100267
internal_weight=3.05275 1.52637 1.52637
internal_count=1150 575 575
is_linear=0
shrinkage=0.1


Tree=53
num_leaves=9
num_cat=0
split_feature=10 0 2 0 0 6 1 1
split_gain=2.77626 2.22045e-16 2.22045e-16 5.55112e-17 5.55112e-17 5.55112e-17 2.77556e-17 2.77556e-17
threshold=1.0000000180025095e-35 -0.9196962881861328 -0.86247709570215647 -1.0917568111795808 -1.3765374533361572 -0.80333914097019654 0.44921847851957153 -0.052123690427196313
decision_type=2 2 2 2 2 2 2 2
left_child=2 3 5 4 -2 -1 7 -6
right_child=1 -3 -4 -5 6 -7 -8 -9
leaf_value=0.10024141443214535 -0.10024141443214535 -0.10024141443214639 0.10024141443214635 -0.10024141443214461 -0.10024141443214528 0.10024141443214613 -0.10024141443214439 -0.10024141443214439
leaf_weight=0.088893456850200891 0.088893456850200891 1.0643189563415942 1.0330861201509836 0.048050517216324695 0.084088405128568411 0.25947279296815384 0.048050517216324806 0.048050517216324806
leaf_count=37 37 443 430 20 35 108 20 20
internal_value=0 -0.100241 0.100241 -0.100241 -0.100241 0.100241 -0.100241 -0.100241
internal_weight=2.7629 1.38145 1.38145 0.317133 0.269083 0.348366 0.180189 0.132139
internal_count=1150 575 575 132 112 145 75 55
is_linear=0
shrinkage=0.1


Tree=54
num_leaves=2
num_cat=0
split_feature=10
split_gain=2.51146
threshold=1.0000000180025095e-35
decision_type=2
left_child=-1
right_child=-2
leaf_value=0.10021838889070318 -0.10021838889070322
leaf_weight=1.2502623430918904 1.25026234309189
leaf_count=575 575
internal_value=0
internal_weight=2.50052
internal_count=1150
is_linear=0
shrinkage=0.1


Tree=55
num_leaves=8
num_cat=0
split_feature=10 0 0 0 0 0 1
split_gain=2.27197 2.22045e-16 2.22045e-16 1.11022e-16 1.11022e-16 5.55112e-17 1.38778e-17
threshold=1.0000000180025095e-35 1.2977985203556013 1.3898699188666581 0.94096169032363275 -0.1349282483108227 0.57229893983767821 0.72686955962402888
decision_type=2 2 2 2 2 2 2
left_child=1 3 -2 4 -1 -6 -5
right_child=2 -3 -4 6 5 -7 -8
leaf_value=0.10019755545679931 -0.10019755545679943 0.10019755545679901 -0.10019755545679786 0.10019755545679815 0.10019755545679897 0.10019755545679875 0.10019755545679698
leaf_weight=0.47424919065088034 1.0783757530152795 0.19481605757027864 0.053131652064621337 0.072810041718184948 0.22039796411991142 0.1298773717135191 0.039356779307126999
leaf_count=241 548 99 27 37 112 66 20
internal_value=0 0.100198 -0.100198 0.100198 0.100198 0.100198 0.100198
internal_weight=2.26301 1.13151 1.13151 0.936691 0.824525 0.350275 0.112167
internal_count=1150 575 575 476 419 178 57
is_linear=0
shrinkage=0.1


Tree=56
num_leaves=2
num_cat=0
split_feature=10
split_gain=2.05535
threshold=1.0000000180025095e-35
decision_type=2
left_child=-1
right_child=-2
leaf_value=0.10017872567631847 -0.1001787256763185
leaf_weight=1.0240129136946055 1.024012913694605
leaf_count=575 575
internal_value=0
internal_weight=2.04803
internal_count=1150
is_linear=0
shrinkage=0.1


Tree=57
num_leaves=7
num_cat=0
split_feature=10 0 0 0 2 2
split_gain=1.85943 1.11022e-16 1.11022e-16 1.11022e-16 1.11022e-16 1.11022e-16
threshold=1.0000000180025095e-35 1.2525582853890382 1.1074128313379596 0.57229893983767821 1.4153926853337413 1.2638238468749865
decision_type=2 2 2 2 2 2
left_child=4 2 3 -2 5 -1
right_child=1 -3 -4 -5 -6 -7
leaf_value=0.10016168494434628 -0.10016168494434625 -0.10016168494434535 -0.10016168494434392 -0.1001616849443457 0.10016168494434535 0.10016168494434419
leaf_weight=0.78649882972240448 0.64789452776312828 0.095088997855782509 0.040291948243975639 0.14343933574855328 0.095088997855782509 0.045126982033252716
leaf_count=488 402 59 25 89 59 28
internal_value=0 -0.100162 -0.100162 -0.100162 0.100162 0.100162
internal_weight=1.85343 0.926715 0.831626 0.791334 0.926715 0.831626
internal_count=1150 575 516 491 575 516
is_linear=0
shrinkage=0.1


Tree=58
num_leaves=8
num_cat=0
split_feature=10 0 0 0 0 1 1
split_gain=1.68221 1.11022e-16 1.11022e-16 1.11022e-16 5.55112e-17 2.77556e-17 1.38778e-17
threshold=1.0000000180025095e-35 1.2977985203556013 1.4868464168146207 -0.15420632710904572 1.2080463638586016 0.52350885444431949 -0.76933485837212501
decision_type=2 2 2 2 2 2 2
left_child=1 -1 3 -2 -5 6 -3
right_child=2 5 -4 4 -6 -7 -8
leaf_value=0.10014628146015175 -0.10014628146015164 0.10014628146014926 -0.10014628146014846 -0.10014628146015161 -0.10014628146015037 0.10014628146014962 0.10014628146015031
leaf_weight=0.69425527611747384 0.39525878115091473 0.037921506678685546 0.029170389752835035 0.34858615754637867 0.065633376943878829 0.043755584629252553 0.062716337968595326
leaf_count=476 271 26 20 239 45 30 43
internal_value=0 0.100146 -0.100146 -0.100146 -0.100146 0.100146 0.100146
internal_weight=1.6773 0.838649 0.838649 0.809478 0.41422 0.144393 0.100638
internal_count=1150 575 575 555 284 99 69
is_linear=0
shrinkage=0.1


Tree=59
num_leaves=5
num_cat=0
split_feature=10 0 1 2
split_gain=1.5219 1.11022e-16 1.11022e-16 2.77556e-17
threshold=1.0000000180025095e-35 1.4214430045814976 1.3396288485007461 0.179890956562722
decision_type=2 2 2 2
left_child=2 -2 -1 -4
right_child=1 -3 3 -5
leaf_value=0.1001323445258316 -0.10013234452583163 -0.1001323445258286 0.10013234452582997 0.10013234452582945
leaf_weight=0.65862878318876028 0.72726344596594572 0.03167753666639328 0.05675558652728796 0.04355661291629076
leaf_count=499 551 24 43 33
internal_value=0 -0.100132 0.100132 0.100132
internal_weight=1.51788 0.758941 0.758941 0.100312
internal_count=1150 575 575 76
is_linear=0
shrinkage=0.1


Tree=60
num_leaves=7
num_cat=0
split_feature=10 0 0 0 0 1
split_gain=1.37689 1.11022e-16 1.11022e-16 1.11022e-16 1.11022e-16 1.38778e-17
threshold=1.0000000180025095e-35 1.2977985203556013 1.4536026209125086 1.1417628025733149 0.94096169032363275 -0.49439857961463374
decision_type=2 2 2 2 2 2
left_child=1 -1 3 4 -2 -3
right_child=2 5 -4 -5 -6 -7
leaf_value=0.10011972568354684 -0.10011972568354682 0.10011972568354476 -0.10011972568354338 -0.10011972568354544 -0.10011972568354544 0.10011972568354566
leaf_weight=0.56855119718238711 0.53271813853643835 0.044194105663336813 0.027472011628560722 0.06330507027450949 0.06330507027450949 0.07405498786829412
leaf_count=476 446 37 23 53 53 62
internal_value=0 0.10012 -0.10012 -0.10012 -0.10012 0.10012
internal_weight=1.3736 0.6868 0.6868 0.659328 0.596023 0.118249
internal_count=1150 575 575 552 499 99
is_linear=0
shrinkage=0.1


Tree=61
num_leaves=6
num_cat=0
split_feature=10 0 0 0 1
split_gain=1.24571 1.11022e-16 1.11022e-16 1.11022e-16 1.38778e-17
threshold=1.0000000180025095e-35 1.2977985203556013 1.4774363624806501 1.1871252733698292 -0.49439857961463374
decision_type=2 2 2 2 2
left_child=1 -1 3 -2 -3
right_child=2 4 -4 -5 -6
leaf_value=0.10010831744885625 -0.10010831744885625 0.10010831744885394 -0.10010831744885203 -0.10010831744885447 0.10010831744885494
leaf_weight=0.51450206618756056 0.54800955369137228 0.039992807665839791 0.02269862056709826 0.050801674602553248 0.067014975007623434
leaf_count=476 507 37 21 47 62
internal_value=0 0.100108 -0.100108 -0.100108 0.100108
internal_weight=1.24302 0.62151 0.62151 0.598811 0.107008
internal_count=1150 575 575 554 99
is_linear=0
shrinkage=0.1


Tree=62
num_leaves=4
num_cat=0
split_feature=10 0 1
split_gain=1.12705 1.11022e-16 1.11022e-16
threshold=1.0000000180025095e-35 1.4536026209125086 -1.3831403120035564
decision_type=2 2 2
left_child=2 -2 -1
right_child=1 -3 -4
leaf_value=0.10009801229634535 -0.10009801229634759 -0.10009801229634332 0.10009801229634759
leaf_weight=0.041081138653680682 0.53992353659123182 0.022496814024634659 0.5213392119621858
leaf_count=42 552 23 533
internal_value=0 -0.100098 0.100098
internal_weight=1.12484 0.56242 0.56242
internal_count=1150 575 575
is_linear=0
shrinkage=0.1


Tree=63
num_leaves=4
num_cat=0
split_feature=10 0 0
split_gain=1.01969 1.11022e-16 1.11022e-16
threshold=1.0000000180025095e-35 -0.48573281563422138 1.2921237634386202
decision_type=2 2 2
left_child=1 -1 -2
right_child=2 -3 -4
leaf_value=0.10008866750618937 -0.10008866750618983 0.10008866750618979 -0.100088667506188
leaf_weight=0.14692993147764355 0.46026243595406413 0.36201410827925429 0.048681603802833706
leaf_count=166 520 409 55
internal_value=0 0.100089 -0.100089
internal_weight=1.01789 0.508944 0.508944
internal_count=1150 575 575
is_linear=0
shrinkage=0.1


Tree=64
num_leaves=2
num_cat=0
split_feature=10
split_gain=0.922575
threshold=1.0000000180025095e-35
decision_type=2
left_child=-1
right_child=-2
leaf_value=0.10008022364074903 -0.10008022364074903
leaf_weight=0.46054848498897627 0.46054848498897627
leaf_count=575 575
internal_value=0
internal_weight=0.921097
internal_count=1150
is_linear=0
shrinkage=0.1


Tree=65
num_leaves=8
num_cat=0
split_feature=10 0 2 2 2 0 2
split_gain=0.834714 5.55112e-17 5.55112e-17 5.55112e-17 5.55112e-17 6.93889e-18 6.93889e-18
threshold=1.0000000180025095e-35 1.112838273375224 -1.2058092728777587 1.4696297071024302 1.2638238468749865 1.4536026209125086 -1.3512961318525811
decision_type=2 2 2 2 2 2 2
left_child=2 -2 6 4 -4 -3 -1
right_child=1 5 3 -5 -6 -7 -8
leaf_value=0.10007258434396105 -0.1000725843439631 -0.10007258434396105 0.10007258434396304 0.10007258434396052 0.10007258434395985 -0.10007258434395738 0.10007258434395763
leaf_weight=0.042762347671668977 0.35731927800225094 0.042762347671668977 0.29353814927162603 0.034789706580340862 0.028266636596526951 0.01667006773641333 0.017394853290170431
leaf_count=59 493 59 405 48 39 23 24
internal_value=0 -0.100073 0.100073 0.100073 0.100073 -0.100073 0.100073
internal_weight=0.833503 0.416752 0.416752 0.356594 0.321805 0.0594324 0.0601572
internal_count=1150 575 575 492 444 82 83
is_linear=0
shrinkage=0.1


Tree=66
num_leaves=10
num_cat=0
split_feature=10 0 0 0 0 1 1 1 2
split_gain=0.755226 5.55112e-17 5.55112e-17 5.55112e-17 5.55112e-17 5.55112e-17 5.55112e-17 1.38778e-17 6.93889e-18
threshold=1.0000000180025095e-35 1.4214430045814976 1.2310378370572406 1.0413125198823436 0.92173310516213103 0.86550775471365271 -1.5211917566848816 1.2765576981480398 0.31792365135653294
decision_type=2 2 2 2 2 2 2 2 2
left_child=5 2 3 4 -2 6 -1 -7 -9
right_child=1 -3 -4 -5 -6 7 -8 8 -10
leaf_value=0.10006567548746939 -0.10006567548747597 -0.10006567548746997 -0.10006567548747231 -0.10006567548747106 -0.10006567548747258 0.1000656754874739 0.10006567548747594 0.10006567548747339 0.10006567548747208
leaf_weight=0.01442883419804275 0.29054425226058811 0.015740546397864819 0.024922531796619296 0.019019826897419989 0.026890100096352398 0.041318934294395149 0.26365415216423571 0.034104517195373774 0.023610819596797228
leaf_count=22 443 24 38 29 41 63 402 52 36
internal_value=0 -0.100066 -0.100066 -0.100066 -0.100066 0.100066 0.100066 0.100066 0.100066
internal_weight=0.754235 0.377117 0.361377 0.336454 0.317434 0.377117 0.278083 0.0990343 0.0577153
internal_count=1150 575 551 513 484 575 424 151 88
is_linear=0
shrinkage=0.1


Tree=67
num_leaves=6
num_cat=0
split_feature=10 0 0 0 1
split_gain=0.683311 5.55112e-17 5.55112e-17 5.55112e-17 5.55112e-17
threshold=1.0000000180025095e-35 1.4720156416747179 1.2921237634386202 1.1388996906279529 -0.83585151131515134
decision_type=2 2 2 2 2
left_child=4 2 3 -2 -1
right_child=1 -3 -4 -5 -6
leaf_value=0.1000594259642118 -0.10005942596421268 -0.10005942596420535 -0.1000594259642079 -0.10005942596420535 0.10005942596421261
leaf_weight=0.083680443931370974 0.29555220622569323 0.013056523166596889 0.019584784749895334 0.013056523166596889 0.25756959337741137
leaf_count=141 498 22 33 22 434
internal_value=0 -0.100059 -0.100059 -0.100059 0.100059
internal_weight=0.6825 0.34125 0.328194 0.308609 0.34125
internal_count=1150 575 553 520 575
is_linear=0
shrinkage=0.1


Tree=68
num_leaves=5
num_cat=0
split_feature=10 0 2 2
split_gain=0.618249 5.55112e-17 5.55112e-17 5.55112e-17
threshold=1.0000000180025095e-35 1.4214430045814976 1.5186167622030913 1.3022517832287259
decision_type=2 2 2 2
left_child=2 -2 3 -1
right_child=1 -3 -4 -5
leaf_value=0.10005376047475666 -0.10005376047475667 -0.10005376047474926 0.10005376047475155 0.10005376047475288
leaf_weight=0.26636699121445417 0.29590365354670212 0.012888725381344557 0.018259027623571455 0.024166360090021044
leaf_count=496 551 24 34 45
internal_value=0 -0.100054 0.100054 0.100054
internal_weight=0.617585 0.308792 0.308792 0.290533
internal_count=1150 575 575 541
is_linear=0
shrinkage=0.1


Tree=69
num_leaves=9
num_cat=0
split_feature=10 0 0 0 1 1 1 0
split_gain=0.559385 5.55112e-17 5.55112e-17 5.55112e-17 2.77556e-17 6.93889e-18 6.93889e-18 3.46945e-18
threshold=1.0000000180025095e-35 1.6372094683518785 -0.84428253605514691 1.2732082501816218 -0.69949879232113377 0.93682345092317321 -1.2540217985766458 1.4214430045814976
decision_type=2 2 2 2 2 2 2 2
left_child=1 2 5 -2 6 -1 -4 -5
right_child=3 -3 4 7 -6 -7 -8 -9
leaf_value=0.1000486432707801 -0.10004864327078222 0.10004864327077852 0.10004864327077861 -0.10004864327077641 0.10004864327078195 0.10004864327077641 0.10004864327077952 -0.10004864327077406
leaf_weight=0.03936183953192085 0.25172139354981482 0.024297431809827685 0.024783380446024239 0.016036304994486272 0.14286889904178679 0.016036304994486272 0.032072609988972545 0.011662767268717289
leaf_count=81 518 50 51 33 294 33 66 24
internal_value=0 0.100049 0.100049 -0.100049 0.100049 0.100049 0.100049 -0.100049
internal_weight=0.558841 0.27942 0.255123 0.27942 0.199725 0.0553981 0.056856 0.0276991
internal_count=1150 575 525 575 411 114 117 57
is_linear=0
shrinkage=0.1


Tree=70
num_leaves=2
num_cat=0
split_feature=10
split_gain=0.506128
threshold=1.0000000180025095e-35
decision_type=2
left_child=-1
right_child=-2
leaf_value=0.10004401409615922 -0.10004401409615922
leaf_weight=0.2528412063838914 0.2528412063838914
leaf_count=575 575
internal_value=0
internal_weight=0.505682
internal_count=1150
is_linear=0
shrinkage=0.1


Tree=71
num_leaves=5
num_cat=0
split_feature=10 0 0 0
split_gain=0.457943 2.77556e-17 2.77556e-17 2.77556e-17
threshold=1.0000000180025095e-35 1.2977985203556013 0.94096169032363275 1.4536026209125086
decision_type=2 2 2 2
left_child=1 2 -1 -2
right_child=3 -3 -4 -5
leaf_value=0.10003982724120336 -0.10003982724120349 0.1000398272412014 0.10003982724119953 -0.10003982724119304
leaf_weight=0.16671774772112258 0.219637701055035 0.039391544210957363 0.022679980000248179 0.0091515708772931248
leaf_count=419 552 99 57 23
internal_value=0 0.10004 0.10004 -0.10004
internal_weight=0.457579 0.228789 0.189398 0.228789
internal_count=1150 575 476 575
is_linear=0
shrinkage=0.1


Tree=72
num_leaves=5
num_cat=0
split_feature=10 0 0 0
split_gain=0.414347 2.77556e-17 2.77556e-17 1.38778e-17
threshold=1.0000000180025095e-35 0.22766691231886124 1.2310378370572406 -0.48573281563422138
decision_type=2 2 2 2
left_child=1 3 -2 -1
right_child=2 -3 -4 -5
leaf_value=0.10003602788559796 -0.10003602788559909 0.10003602788559862 -0.10003602788559514 0.10003602788559751
leaf_weight=0.059767088328953832 0.18470190549851395 0.10009187081595883 0.02232264744816348 0.047165593801764771
leaf_count=166 513 278 62 131
internal_value=0 0.100036 -0.100036 0.100036
internal_weight=0.414049 0.207025 0.207025 0.106933
internal_count=1150 575 575 297
is_linear=0
shrinkage=0.1


Tree=73
num_leaves=4
num_cat=0
split_feature=10 0 0
split_gain=0.374904 2.77556e-17 2.77556e-17
threshold=1.0000000180025095e-35 1.6372094683518785 1.3834341306869311
decision_type=2 2 2
left_child=1 -1 -2
right_child=2 -3 -4
leaf_value=0.10003260651185038 -0.10003260651185041 0.10003260651184481 -0.10003260651183998
leaf_weight=0.17104011421906762 0.17820750948158093 0.016289534687530249 0.0091221394250169396
leaf_count=525 547 50 28
internal_value=0 0.100033 -0.100033
internal_weight=0.374659 0.18733 0.18733
internal_count=1150 575 575
is_linear=0
shrinkage=0.1


Tree=74
num_leaves=5
num_cat=0
split_feature=10 0 0 1
split_gain=0.339216 2.77556e-17 2.77556e-17 1.73472e-18
threshold=1.0000000180025095e-35 1.6372094683518785 1.4868464168146207 0.31759401061939524
decision_type=2 2 2 2
left_child=1 -1 -2 -3
right_child=2 3 -4 -5
leaf_value=0.10002948922335174 -0.10002948922335178 0.10002948922334108 -0.10002948922333543 0.10002948922333542
leaf_weight=0.15476806147489697 0.16361195070203394 0.0088438892271369696 0.0058959261514246455 0.0058959261514246472
leaf_count=525 555 30 20 20
internal_value=0 0.100029 -0.100029 0.100029
internal_weight=0.339016 0.169508 0.169508 0.0147398
internal_count=1150 575 575 50
is_linear=0
shrinkage=0.1


Tree=75
num_leaves=2
num_cat=0
split_feature=10
split_gain=0.306926
threshold=1.0000000180025095e-35
decision_type=2
left_child=-1
right_child=-2
leaf_value=0.10002668716683255 -0.10002668716683255
leaf_weight=0.15338114608312026 0.15338114608312026
leaf_count=575 575
internal_value=0
internal_weight=0.306762
internal_count=1150
is_linear=0
shrinkage=0.1


Tree=76
num_leaves=2
num_cat=0
split_feature=10
split_gain=0.277711
threshold=1.0000000180025095e-35
decision_type=2
left_child=-1
right_child=-2
leaf_value=0.10002414557229818 -0.10002414557229818
leaf_weight=0.13878835161449388 0.13878835161449388
leaf_count=575 575
internal_value=0
internal_weight=0.277577
internal_count=1150
is_linear=0
shrinkage=0.1


Tree=77
num_leaves=2
num_cat=0
split_feature=10
split_gain=0.251277
threshold=1.0000000180025095e-35
decision_type=2
left_child=-1
right_child=-2
leaf_value=0.10002184722956529 -0.10002184722956529
leaf_weight=0.12558363378047943 0.12558363378047943
leaf_count=575 575
internal_value=0
internal_weight=0.251167
internal_count=1150
is_linear=0
shrinkage=0.1


Tree=78
num_leaves=5
num_cat=0
split_feature=10 0 0 6
split_gain=0.22736 1.38778e-17 1.38778e-17 1.38778e-17
threshold=1.0000000180025095e-35 1.6372094683518785 1.4214430045814976 -1.5432092089061127
decision_type=2 2 2 2
left_child=1 3 -2 -1
right_child=2 -3 -4 -5
leaf_value=0.10001977061227718 -0.10001977061229826 0.10001977061228906 -0.10001977061227812 0.10001977061229816
leaf_weight=0.0045454005739884442 0.10889198766381014 0.0098813055956270546 0.0047430266859009853 0.099208308180095628
leaf_count=23 551 50 24 502
internal_value=0 0.10002 -0.10002 0.10002
internal_weight=0.22727 0.113635 0.113635 0.103754
internal_count=1150 575 575 525
is_linear=0
shrinkage=0.1


Tree=79
num_leaves=5
num_cat=0
split_feature=10 0 0 0
split_gain=0.20572 1.38778e-17 1.38778e-17 1.38778e-17
threshold=1.0000000180025095e-35 0.94096169032363275 1.4868464168146207 1.2849913221629981
decision_type=2 2 2 2
left_child=1 -1 3 -2
right_child=2 -3 -4 -5
leaf_value=0.10001788649351517 -0.10001788649351545 0.10001788649351294 -0.10001788649348858 -0.10001788649350099
leaf_weight=0.074926709028659388 0.092808978486573324 0.027896340354345739 0.0035764538915827862 0.0064376170048490158
leaf_count=419 519 156 20 36
internal_value=0 0.100018 -0.100018 -0.100018
internal_weight=0.205646 0.102823 0.102823 0.0992466
internal_count=1150 575 575 555
is_linear=0
shrinkage=0.1


Tree=80
num_leaves=4
num_cat=0
split_feature=10 0 1
split_gain=0.18614 1.38778e-17 1.38778e-17
threshold=1.0000000180025095e-35 1.403487607128582 1.0694103364027805
decision_type=2 2 2
left_child=2 -2 -1
right_child=1 -3 -4
leaf_value=0.10001618797330575 -0.10001618797330598 -0.10001618797328241 0.10001618797330206
leaf_weight=0.073299056355608627 0.088994439283851534 0.0040452017856296143 0.019740584713872522
leaf_count=453 550 25 122
internal_value=0 -0.100016 0.100016
internal_weight=0.186079 0.0930396 0.0930396
internal_count=1150 575 575
is_linear=0
shrinkage=0.1


Tree=81
num_leaves=5
num_cat=0
split_feature=10 0 0 1
split_gain=0.168423 1.38778e-17 1.38778e-17 1.38778e-17
threshold=1.0000000180025095e-35 1.3068345188258348 1.1741768843376368 0.11635368448761697
decision_type=2 2 2 2
left_child=3 2 -2 -1
right_child=1 -3 -4 -5
leaf_value=0.10001464015919677 -0.1000146401591977 -0.10001464015917956 -0.10001464015917956 0.10001464015919659
leaf_weight=0.043777231388958171 0.073938133282354102 0.0051244250789750359 0.0051244250789750359 0.040409752051346004
leaf_count=299 505 35 35 276
internal_value=0 -0.100015 -0.100015 0.100015
internal_weight=0.168374 0.084187 0.0790626 0.084187
internal_count=1150 575 540 575
is_linear=0
shrinkage=0.1


Tree=82
num_leaves=5
num_cat=0
split_feature=10 0 0 0
split_gain=0.152393 1.38778e-17 1.38778e-17 6.93889e-18
threshold=1.0000000180025095e-35 0.94096169032363275 1.3898699188666581 -0.1349282483108227
decision_type=2 2 2 2
left_child=1 3 -2 -1
right_child=2 -3 -4 -5
leaf_value=0.10001324689386937 -0.10001324689387113 0.10001324689386766 -0.10001324689384457 0.10001324689386826
leaf_weight=0.031927906980854459 0.072599556122440845 0.020667026925366372 0.0035769854293903327 0.023581607645610347
leaf_count=241 548 156 27 178
internal_value=0 0.100013 -0.100013 0.100013
internal_weight=0.152353 0.0761765 0.0761765 0.0555095
internal_count=1150 575 575 419
is_linear=0
shrinkage=0.1


Tree=83
num_leaves=2
num_cat=0
split_feature=10
split_gain=0.137889
threshold=1.0000000180025095e-35
decision_type=2
left_child=-1
right_child=-2
leaf_value=0.10001198748567047 -0.10001198748567047
leaf_weight=0.068928210566809867 0.068928210566809867
leaf_count=575 575
internal_value=0
internal_weight=0.137856
internal_count=1150
is_linear=0
shrinkage=0.1


Tree=84
num_leaves=4
num_cat=0
split_feature=10 1 2
split_gain=0.124766 1.38778e-17 1.38778e-17
threshold=1.0000000180025095e-35 0.66789585164691612 -0.86247709570215647
decision_type=2 2 2
left_child=2 -2 -1
right_child=1 -3 -4
leaf_value=0.10001084665340194 -0.10001084665340616 -0.10001084665340194 0.10001084665340616
leaf_weight=0.01572796085383743 0.046641539083793759 0.01572796085383743 0.046641539083793759
leaf_count=145 430 145 430
internal_value=0 -0.100011 0.100011
internal_weight=0.124739 0.0623695 0.0623695
internal_count=1150 575 575
is_linear=0
shrinkage=0.1


Tree=85
num_leaves=9
num_cat=0
split_feature=10 0 0 6 6 6 6 0
split_gain=0.112892 1.38778e-17 1.38778e-17 3.46945e-18 3.46945e-18 1.73472e-18 1.73472e-18 8.67362e-19
threshold=1.0000000180025095e-35 0.57229893983767821 1.1417628025733149 -1.3535877825533857 -0.2404731164352587 1.3875877210285916 1.0684370369658167 1.403487607128582
decision_type=2 2 2 2 2 2 2 2
left_child=1 -1 -2 -3 -5 6 -6 -4
right_child=2 3 7 4 5 -7 -8 -9
leaf_value=0.10000981519485284 -0.10000981519485369 0.10000981519480943 -0.10000981519483575 0.1000098151948403 0.10000981519484453 0.10000981519481136 0.10000981519480473 -0.10000981519481496
leaf_weight=0.034646065738343168 0.048975600009725895 0.0021592448902083552 0.0050055222454830064 0.0064777346706250674 0.0089314220458618365 0.0022573923852178277 0.0019629499001894155 0.0024536873752367683
leaf_count=353 499 22 51 66 91 23 20 25
internal_value=0 0.10001 -0.10001 0.10001 0.10001 0.10001 0.10001 -0.10001
internal_weight=0.11287 0.0564348 0.0564348 0.0217887 0.0196295 0.0131518 0.0108944 0.00745921
internal_count=1150 575 575 222 200 134 111 76
is_linear=0
shrinkage=0.1


Tree=86
num_leaves=5
num_cat=0
split_feature=10 0 1 1
split_gain=0.102148 6.93889e-18 6.93889e-18 8.67362e-19
threshold=1.0000000180025095e-35 1.3590909218580076 1.4062593516785291 1.5842516406295672
decision_type=2 2 2 2
left_child=2 -2 -1 -4
right_child=1 -3 3 -5
leaf_value=0.10000888108052708 -0.10000888108052722 -0.10000888108049413 0.10000888108049802 0.10000888108048907
leaf_weight=0.045381049436400644 0.048222915545920841 0.002841866109520196 0.0031970993732102207 0.0024866328458301723
leaf_count=511 543 32 36 28
internal_value=0 -0.100009 0.100009 0.100009
internal_weight=0.10213 0.0510648 0.0510648 0.00568373
internal_count=1150 575 575 64
is_linear=0
shrinkage=0.1


Tree=87
num_leaves=2
num_cat=0
split_feature=10
split_gain=0.0924262
threshold=1.0000000180025095e-35
decision_type=2
left_child=-1
right_child=-2
leaf_value=0.10000804035970615 -0.10000804035970615
leaf_weight=0.046205693433876149 0.046205693433876149
leaf_count=575 575
internal_value=0
internal_weight=0.0924114
internal_count=1150
is_linear=0
shrinkage=0.1


Tree=88
num_leaves=5
num_cat=0
split_feature=10 0 0 0
split_gain=0.0836301 6.93889e-18 6.93889e-18 6.93889e-18
threshold=1.0000000180025095e-35 1.2977985203556013 1.4868464168146207 1.2432628651364832
decision_type=2 2 2 2
left_child=1 -1 3 -2
right_child=2 -3 -4 -5
leaf_value=0.10000727483630829 -0.10000727483630852 0.1000072748362973 -0.10000727483624246 -0.10000727483627683
leaf_weight=0.03461053385399282 0.037446270871441811 0.0071984093519859007 0.0014542241115123025 0.0029084482230246058
leaf_count=476 515 99 20 40
internal_value=0 0.100007 -0.100007 -0.100007
internal_weight=0.0836179 0.0418089 0.0418089 0.0403547
internal_count=1150 575 575 555
is_linear=0
shrinkage=0.1


Tree=89
num_leaves=2
num_cat=0
split_feature=10
split_gain=0.075671
threshold=1.0000000180025095e-35
decision_type=2
left_child=-1
right_child=-2
leaf_value=0.10000658009837371 -0.10000658009837371
leaf_weight=0.037830543806194328 0.037830543806194328
leaf_count=575 575
internal_value=0
internal_weight=0.0756611
internal_count=1150
is_linear=0
shrinkage=0.1


Tree=90
num_leaves=2
num_cat=0
split_feature=10
split_gain=0.0684695
threshold=1.0000000180025095e-35
decision_type=2
left_child=-1
right_child=-2
leaf_value=0.10000595822495693 -0.10000595822495693
leaf_weight=0.034230695928272326 0.034230695928272326
leaf_count=575 575
internal_value=0
internal_weight=0.0684614
internal_count=1150
is_linear=0
shrinkage=0.1


Tree=91
num_leaves=4
num_cat=0
split_feature=10 0 1
split_gain=0.0619534 3.46945e-18 3.46945e-18
threshold=1.0000000180025095e-35 0.31247603094622833 -0.9096240217498327
decision_type=2 2 2
left_child=2 -2 -1
right_child=1 -3 -4
leaf_value=0.1000053826692763 -0.10000538266928571 -0.10000538266928152 0.10000538266928655
leaf_weight=0.0069488109875237561 0.020092298436793499 0.010881083871936426 0.024024571321206167
leaf_count=129 373 202 446
internal_value=0 -0.100005 0.100005
internal_weight=0.0619468 0.0309734 0.0309734
internal_count=1150 575 575
is_linear=0
shrinkage=0.1


Tree=92
num_leaves=8
num_cat=0
split_feature=10 0 0 0 0 1 1
split_gain=0.0560575 3.46945e-18 3.46945e-18 3.46945e-18 1.73472e-18 1.73472e-18 4.33681e-19
threshold=1.0000000180025095e-35 -0.1349282483108227 1.112838273375224 0.12943988355894162 -0.48573281563422138 0.11635368448761697 0.59609013962740531
decision_type=2 2 2 2 2 2 2
left_child=1 4 3 -2 5 -1 -6
right_child=2 -3 -4 -5 6 -7 -8
leaf_value=0.10000487393668485 -0.1000048739367031 0.10000487393670315 -0.10000487393668429 -0.10000487393669655 0.10000487393666652 0.10000487393668428 0.10000487393663329
leaf_weight=0.0040942348132375628 0.016181975690415129 0.01627945747168269 0.0039967530319700009 0.007847283392038662 0.0023395627504214653 0.0039967530319700018 0.0013160040471120737
leaf_count=84 332 334 82 161 48 82 27
internal_value=0 0.100005 -0.100005 -0.100005 0.100005 0.100005 0.100005
internal_weight=0.056052 0.028026 0.028026 0.0240293 0.0117466 0.00809099 0.00365557
internal_count=1150 575 575 493 241 166 75
is_linear=0
shrinkage=0.1


Tree=93
num_leaves=2
num_cat=0
split_feature=10
split_gain=0.0507227
threshold=1.0000000180025095e-35
decision_type=2
left_child=-1
right_child=-2
leaf_value=0.10000441314347569 -0.10000441314347569
leaf_weight=0.025359094615851063 0.025359094615851063
leaf_count=575 575
internal_value=0
internal_weight=0.0507182
internal_count=1150
is_linear=0
shrinkage=0.1


Tree=94
num_leaves=2
num_cat=0
split_feature=10
split_gain=0.0458956
threshold=1.0000000180025095e-35
decision_type=2
left_child=-1
right_child=-2
leaf_value=0.10000398385380992 -0.10000398385380992
leaf_weight=0.022945950513530988 0.022945950513530988
leaf_count=575 575
internal_value=0
internal_weight=0.0458919
internal_count=1150
is_linear=0
shrinkage=0.1


Tree=95
num_leaves=6
num_cat=0
split_feature=10 0 2 0 2
split_gain=0.0415279 3.46945e-18 3.46945e-18 1.73472e-18 1.73472e-18
threshold=1.0000000180025095e-35 -0.053252762078851483 0.13552656265287488 1.372039919270561 1.5511617678597596
decision_type=2 2 2 2 2
left_child=2 -2 -1 -3 -4
right_child=1 3 4 -5 -6
leaf_value=0.10000360688971476 -0.10000360688971476 -0.10000360688971166 0.1000036068897116 -0.10000360688963117 0.10000360688963415
leaf_weight=0.011301983384328196 0.011301983384328196 0.0083771889621857554 0.0083410803890728857 0.0010832571933860899 0.0011193657664989596
leaf_count=313 313 232 231 30 31
internal_value=0 -0.100004 0.100004 -0.100004 0.100004
internal_weight=0.0415249 0.0207624 0.0207624 0.00946045 0.00946045
internal_count=1150 575 575 262 262
is_linear=0
shrinkage=0.1


Tree=96
num_leaves=4
num_cat=0
split_feature=10 0 2
split_gain=0.0375758 3.46945e-18 3.46945e-18
threshold=1.0000000180025095e-35 -1.207831293358034 -1.2787736417763393
decision_type=2 2 2
left_child=2 -2 -1
right_child=1 -3 -4
leaf_value=0.10000326246214611 -0.1000032624621303 -0.10000326246218215 0.10000326246218193
leaf_weight=0.0023850921243138137 0.0017316422272415357 0.017055042313586455 0.016401592416514177
leaf_count=73 53 522 502
internal_value=0 -0.100003 0.100003
internal_weight=0.0375734 0.0187867 0.0187867
internal_count=1150 575 575
is_linear=0
shrinkage=0.1


Tree=97
num_leaves=13
num_cat=0
split_feature=10 0 0 1 1 1 1 1 1 1 1 1
split_gain=0.0339999 3.46945e-18 3.46945e-18 1.73472e-18 1.73472e-18 1.73472e-18 8.67362e-19 8.67362e-19 8.67362e-19 8.67362e-19 8.67362e-19 4.33681e-19
threshold=1.0000000180025095e-35 -0.1349282483108227 0.63470415993992202 0.45396351434467458 1.2765576981480398 0.93682345092317321 1.2074028303056805 0.45902515057703519 0.45902515057703519 -0.56873859375611058 1.188594811658471 0.94349737783935195
decision_type=2 2 2 2 2 2 2 2 2 2 2 2
left_child=1 6 3 -2 5 8 7 -1 9 -3 11 -5
right_child=2 4 -4 10 -6 -7 -8 -9 -10 -11 -12 -13
leaf_value=0.10000295951898573 -0.10000295951899781 0.10000295951898019 -0.10000295951898848 -0.10000295951895698 0.10000295951893463 0.10000295951891321 0.10000295951893633 0.10000295951894836 0.10000295951891036 0.10000295951897796 -0.10000295951891845 -0.1000029595189159
leaf_weight=0.0041388734462088897 0.0082777468924177811 0.0033702255204843823 0.0046710143178643184 0.0018920564325526365 0.0013303521791385728 0.0010347183615522226 0.0013599155608972069 0.0016259859967249213 0.0010051549797935877 0.0031337184664153028 0.0010938451250694925 0.0010642817433108576
leaf_count=140 280 114 158 64 45 35 46 55 34 106 37 36
internal_value=0 0.100003 -0.100003 -0.100003 0.100003 0.100003 0.100003 0.100003 0.100003 0.100003 -0.100003 -0.100003
internal_weight=0.0339979 0.0169989 0.0169989 0.0123279 0.00987417 0.00854382 0.00712478 0.00576486 0.0075091 0.00650394 0.00405018 0.00295634
internal_count=1150 575 575 417 334 289 241 195 254 220 137 100
is_linear=0
shrinkage=0.1


Tree=98
num_leaves=8
num_cat=0
split_feature=10 0 0 0 0 0 6
split_gain=0.0307643 1.73472e-18 1.73472e-18 1.73472e-18 1.73472e-18 1.73472e-18 1.73472e-18
threshold=1.0000000180025095e-35 1.6372094683518785 1.2977985203556013 1.2525582853890382 0.94096169032363275 0.26354965258486651 1.3418151226326003
decision_type=2 2 2 2 2 2 2
left_child=1 2 6 4 5 -2 -1
right_child=3 -3 -4 -5 -6 -7 -8
leaf_value=0.10000267917181693 -0.1000026791718156 0.10000267917175099 0.10000267917174946 -0.10000267917176241 -0.10000267917177237 -0.10000267917177963 0.10000267917175901
leaf_weight=0.011235052697884385 0.0097637957969709532 0.0013375062735576657 0.0013107561480865124 0.0015782574027980454 0.0018725087829807316 0.0021667601631634179 0.0014980070263845855
leaf_count=420 365 50 49 59 70 81 56
internal_value=0 0.100003 0.100003 -0.100003 -0.100003 -0.100003 0.100003
internal_weight=0.0307626 0.0153813 0.0140438 0.0153813 0.0138031 0.0119306 0.0127331
internal_count=1150 575 525 575 516 446 476
is_linear=0
shrinkage=0.1


Tree=99
num_leaves=9
num_cat=0
split_feature=10 0 1 0 1 2 0 0
split_gain=0.0278366 3.46945e-18 3.46945e-18 1.73472e-18 1.73472e-18 1.73472e-18 8.67362e-19 4.33681e-19
threshold=1.0000000180025095e-35 1.2588640401931304 1.2765576981480398 0.16151549518871636 0.66217029057653487 1.2787746472262367 0.64609247018455684 -0.1349282483108227
decision_type=2 2 2 2 2 2 2 2
left_child=2 3 4 -2 5 -1 -5 -4
right_child=1 -3 7 6 -6 -7 -8 -9
leaf_value=0.10000241985088106 -0.10000241985088132 -0.10000241985082231 0.10000241985079752 -0.10000241985084378 0.10000241985085422 0.10000241985081558 -0.10000241985085144 0.1000024198508017
leaf_weight=0.0079633046789240325 0.0081327366933692247 0.0014038652625458789 0.0010407966601633234 0.0020089795998501367 0.0025414802166778836 0.0012828423950850274 0.0023720482022326905 0.0010892058071476649
leaf_count=329 336 58 43 83 105 53 98 45
internal_value=0 -0.100002 0.100002 -0.100002 0.100002 0.100002 -0.100002 0.100002
internal_weight=0.0278353 0.0139176 0.0139176 0.0125138 0.0117876 0.00924615 0.00438103 0.00213
internal_count=1150 575 575 517 487 382 181 88
is_linear=0
shrinkage=0.1


end of trees

feature_importances:
Column_0=168
Column_10=100
Column_1=66
Column_2=38
Column_6=16
Column_3=2
Column_4=2
Column_5=1
Column_8=1

parameters:
[boosting: gbdt]
[objective: binary]
[metric: auc]
[tree_learner: serial]
[device_type: cpu]
[data_sample_strategy: bagging]
[data: ]
[valid: ]
[num_iterations: 100]
[learning_rate: 0.1]
[num_leaves: 31]
[num_threads: 0]
[seed: 0]
[deterministic: 0]
[force_col_wise: 0]
[force_row_wise: 0]
[histogram_pool_size: -1]
[max_depth: -1]
[min_data_in_leaf: 20]
[min_sum_hessian_in_leaf: 0.001]
[bagging_fraction: 1]
[pos_bagging_fraction: 1]
[neg_bagging_fraction: 1]
[bagging_freq: 0]
[bagging_seed: 3]
[bagging_by_query: 0]
[feature_fraction: 1]
[feature_fraction_bynode: 1]
[feature_fraction_seed: 2]
[extra_trees: 0]
[extra_seed: 6]
[early_stopping_round: 0]
[early_stopping_min_delta: 0]
[first_metric_only: 0]
[max_delta_step: 0]
[lambda_l1: 0]
[lambda_l2: 0]
[linear_lambda: 0]
[min_gain_to_split: 0]
[drop_rate: 0.1]
[max_drop: 50]
[skip_drop: 0.5]
[xgboost_dart_mode: 0]
[uniform_drop: 0]
[drop_seed: 4]
[top_rate: 0.2]
[other_rate: 0.1]
[min_data_per_group: 100]
[max_cat_threshold: 32]
[cat_l2: 10]
[cat_smooth: 10]
[max_cat_to_onehot: 4]
[top_k: 20]
[monotone_constraints: ]
[monotone_constraints_method: basic]
[monotone_penalty: 0]
[feature_contri: ]
[forcedsplits_filename: ]
[refit_decay_rate: 0.9]
[cegb_tradeoff: 1]
[cegb_penalty_split: 0]
[cegb_penalty_feature_lazy: ]
[cegb_penalty_feature_coupled: ]
[path_smooth: 0]
[interaction_constraints: ]
[verbosity: -1]
[saved_feature_importance_type: 0]
[use_quantized_grad: 0]
[num_grad_quant_bins: 4]
[quant_train_renew_leaf: 0]
[stochastic_rounding: 1]
[linear_tree: 0]
[max_bin: 255]
[max_bin_by_feature: ]
[min_data_in_bin: 3]
[bin_construct_sample_cnt: 200000]
[data_random_seed: 1]
[is_enable_sparse: 1]
[enable_bundle: 1]
[use_missing: 1]
[zero_as_missing: 0]
[feature_pre_filter: 1]
[pre_partition: 0]
[two_round: 0]
[header: 0]
[label_column: ]
[weight_column: ]
[group_column: ]
[ignore_column: ]
[categorical_feature: ]
[forcedbins_filename: ]
[precise_float_parser: 0]
[parser_config_file: ]
[objective_seed: 5]
[num_class: 1]
[is_unbalance: 0]
[scale_pos_weight: 1]
[sigmoid: 1]
[boost_from_average: 1]
[reg_sqrt: 0]
[alpha: 0.9]
[fair_c: 1]
[poisson_max_delta_step: 0.7]
[tweedie_variance_power: 1.5]
[lambdarank_truncation_level: 30]
[lambdarank_norm: 1]
[label_gain: ]
[lambdarank_position_bias_regularization: 0]
[eval_at: ]
[multi_error_top_k: 1]
[auc_mu_weights: ]
[num_machines: 1]
[local_listen_port: 12400]
[time_out: 120]
[machine_list_filename: ]
[machines: ]
[gpu_platform_id: -1]
[gpu_device_id: -1]
[gpu_use_dp: 0]
[num_gpu: 1]

end of parameters

pandas_categorical:null
