tree
version=v4
num_class=1
num_tree_per_iteration=1
label_index=0
max_feature_idx=14
objective=binary sigmoid:1
feature_names=Column_0 Column_1 Column_2 Column_3 Column_4 Column_5 Column_6 Column_7 Column_8 Column_9 Column_10 Column_11 Column_12 Column_13 Column_14
feature_infos=[-1.5615993891479385:1.6523028524096754] [-1.6220935833715049:1.7169496692416586] [-1.7153182578702861:1.7387316160762321] [-1.5443422982366679:1.5484660426912387] [-1.4234685369497719:1.3745040172512539] [-1.6366328197752218:1.5787558241839565] [-1.7117762502450016:1.7037372689536145] [-1.6285901856574179:1.6950632544597615] [-0.74999999999999989:1.3333333333333333] [-1.0671605706969702:1.3533299858480632] [-0.42428931112003937:7.4694653143690655] [-2.9655955234886267:1.4628696683809006] none none none
tree_sizes=665 469 676 467 570 671 671 675 775 673 571 576 572 571 674 466 676 468 781 677 568 572 782 572 889 677 670 468 781 1423 677 1201 987 1315 781 576 679 781 575 679 1213 471 364 1214 681 686 471 790 469 365 677 898 685 999 896 472 683 580 579 581 471 473 684 581 692 583 582 907 580 365 690 895 478 1133 583 690 695 474 585 585 804 700 582 1459 803 906 479 698 590 593 592 593 702 816 816 1034 592 817 921 815

Tree=0
num_leaves=5
num_cat=0
split_feature=10 0 0 1
split_gain=1149 1.13687e-13 1.13687e-13 5.68434e-14
threshold=1.0000000180025095e-35 0.2206181985740879 1.5005460938618935 1.5120547186503204
decision_type=2 2 2 2
left_child=1 3 -2 -1
right_child=2 -3 -4 -5
leaf_value=0.20156672991049876 -0.19843358003389422 0.20156672991049876 -0.19843358003389422 0.20156672991049876
leaf_weight=66.999948084354401 134.74989558756351 68.749946728348732 8.749993219971655 7.9999938011169425
leaf_count=268 539 275 35 32
internal_value=0.00174064 0.201567 -0.198434 0.201567
internal_weight=287.25 143.75 143.5 74.9999
internal_count=1149 575 574 300
is_linear=0
shrinkage=1


Tree=1
num_leaves=3
num_cat=0
split_feature=10 1
split_gain=940.721 1.13687e-13
threshold=1.0000000180025095e-35 1.5120547186503204
decision_type=2 2
left_child=-1 -2
right_child=1 -3
leaf_value=0.18174490147852065 -0.18200142670208203 -0.18200142670208203
leaf_weight=142.29971766471863 136.89794938266277 5.1986563056707373
leaf_count=575 553 21
internal_value=1.62872e-06 -0.182001
internal_weight=284.396 142.097
internal_count=1149 574
is_linear=0
shrinkage=0.1


Tree=2
num_leaves=5
num_cat=0
split_feature=10 0 0 0
split_gain=784.286 5.68434e-14 5.68434e-14 5.68434e-14
threshold=1.0000000180025095e-35 0.93458303531514708 -0.49078638241835004 1.6504975274313118
decision_type=2 2 2 2
left_child=1 2 -1 -2
right_child=3 -3 -4 -5
leaf_value=0.16816004511447669 -0.16835640280690456 0.16816004511447669 0.16816004511447669 -0.16835640280690456
leaf_weight=41.6994519084692 132.88363768160343 39.289078965783119 57.607913330197334 5.5468669086694709
leaf_count=173 551 163 239 23
internal_value=2.60812e-06 0.16816 0.16816 -0.168356
internal_weight=277.027 138.596 99.3074 138.431
internal_count=1149 575 412 574
is_linear=0
shrinkage=0.1


Tree=3
num_leaves=3
num_cat=0
split_feature=10 2
split_gain=662.828 1.13687e-13
threshold=1.0000000180025095e-35 -1.5911107387161485
decision_type=2 2
left_child=1 -1
right_child=-2 -3
leaf_value=0.15761013378896011 -0.15776475775343179 0.15761013378896011
leaf_weight=6.4936466217041007 133.21552667021751 126.85802507400513
leaf_count=28 574 547
internal_value=3.22441e-06 0.15761
internal_weight=266.567 133.352
internal_count=1149 575
is_linear=0
shrinkage=0.1


Tree=4
num_leaves=4
num_cat=0
split_feature=10 0 0
split_gain=566.132 5.68434e-14 5.68434e-14
threshold=1.0000000180025095e-35 1.2951137719694013 1.6078735511531306
decision_type=2 2 2
left_child=1 -1 -2
right_child=2 -3 -4
leaf_value=0.14920958625099134 -0.1493340184121211 0.14920958625099134 -0.1493340184121211
leaf_weight=103.22220546007156 121.45107342302799 23.871516466140747 5.5305588990449897
leaf_count=467 549 108 25
internal_value=3.63768e-06 0.14921 -0.149334
internal_weight=254.075 127.094 126.982
internal_count=1149 575 574
is_linear=0
shrinkage=0.1


Tree=5
num_leaves=5
num_cat=0
split_feature=10 0 0 1
split_gain=487.63 5.68434e-14 2.84217e-14 2.84217e-14
threshold=1.0000000180025095e-35 1.4615317015916029 1.6521516239999163 -1.3523827559661532
decision_type=2 2 2 2
left_child=2 -2 3 -1
right_child=1 -3 -4 -5
leaf_value=0.14238856733142466 -0.14249048243161583 -0.14249048243161583 0.14238856733142466 0.14238856733142466
leaf_weight=10.035517215728758 111.96279056370258 8.1617735177278501 11.08088359236717 99.100732505321503
leaf_count=48 535 39 53 474
internal_value=3.904e-06 -0.14249 0.142389 0.142389
internal_weight=240.342 120.125 120.217 109.136
internal_count=1149 574 575 522
is_linear=0
shrinkage=0.1


Tree=6
num_leaves=5
num_cat=0
split_feature=10 0 2 2
split_gain=422.892 2.84217e-14 2.84217e-14 7.10543e-15
threshold=1.0000000180025095e-35 1.5216338116749344 1.1475362484357838 1.4488425151266446
decision_type=2 2 2 2
left_child=2 -2 -1 -4
right_child=1 -3 3 -5
leaf_value=0.1367629303962766 -0.13684756920372904 -0.13684756920372904 0.13676293039627654 0.1367629303962766
leaf_weight=94.147519811987877 106.44662728905678 6.4930475056171408 9.2378568500280398 9.6309571415185911
leaf_count=479 541 33 47 49
internal_value=4.09386e-06 -0.136848 0.136763 0.136763
internal_weight=225.956 112.94 113.016 18.8688
internal_count=1149 574 575 96
is_linear=0
shrinkage=0.1


Tree=7
num_leaves=5
num_cat=0
split_feature=10 0 0 1
split_gain=368.821 2.84217e-14 2.84217e-14 1.42109e-14
threshold=1.0000000180025095e-35 0.57929472335485799 1.6521516239999163 1.0998933347122832
decision_type=2 2 2 2
left_child=1 3 -2 -1
right_child=2 -3 -4 -5
leaf_value=0.13206379476686567 -0.13213487954633077 0.13206379476686567 -0.13213487954633077 0.13206379476686567
leaf_weight=51.843751698732376 101.59697842597961 40.813166230916977 4.0491549372673026 13.052859470248221
leaf_count=282 552 222 22 71
internal_value=4.2357e-06 0.132064 -0.132135 0.132064
internal_weight=211.356 105.71 105.646 64.8966
internal_count=1149 575 574 353
is_linear=0
shrinkage=0.1


Tree=8
num_leaves=6
num_cat=0
split_feature=10 0 0 2 2
split_gain=323.181 2.84217e-14 2.84217e-14 2.84217e-14 1.77636e-15
threshold=1.0000000180025095e-35 1.6521516239999163 1.6307944315277767 1.4001269184563454 1.5933452470928577
decision_type=2 2 2 2 2
left_child=1 3 -2 -1 -5
right_child=2 -3 -4 4 -6
leaf_value=0.12809701723410083 -0.12815731818806847 0.12809701723410083 -0.12815731818806847 0.12809701723410086 0.1280970172341008
leaf_weight=79.964842960238457 94.290314614772797 9.0752391368150693 4.1144864559173575 5.4793896675109846 3.9383113235235214
leaf_count=467 550 53 24 32 23
internal_value=4.33264e-06 0.128097 -0.128157 0.128097 0.128097
internal_weight=196.863 98.4578 98.4048 89.3825 9.4177
internal_count=1149 575 574 522 55
is_linear=0
shrinkage=0.1


Tree=9
num_leaves=5
num_cat=0
split_feature=10 0 1 1
split_gain=284.316 2.84217e-14 1.42109e-14 7.10543e-15
threshold=1.0000000180025095e-35 0.93458303531514708 1.5744536728092744 0.27468516189887676
decision_type=2 2 2 2
left_child=1 2 -1 -3
right_child=-2 3 -4 -5
leaf_value=0.12471886628146032 -0.12477040876291523 0.1247188662814603 0.12471886628146032 0.12471886628146032
leaf_weight=60.546512112021446 91.331771403551102 15.414728805422785 4.9263566285371772 10.488372176885603
leaf_count=381 574 97 31 66
internal_value=4.40539e-06 0.124719 0.124719 0.124719
internal_weight=182.708 91.376 65.4729 25.9031
internal_count=1149 575 412 163
is_linear=0
shrinkage=0.1


Tree=10
num_leaves=4
num_cat=0
split_feature=10 0 0
split_gain=250.972 1.42109e-14 1.42109e-14
threshold=1.0000000180025095e-35 1.2951137719694013 1.4662048283512539
decision_type=2 2 2
left_child=1 -1 -2
right_child=2 -3 -4
leaf_value=0.1218204574452668 -0.12186482790617553 0.1218204574452668 -0.12186482790617553
leaf_weight=68.665749877691269 78.914009690284729 15.879873633384703 5.5946499407291403
leaf_count=467 536 108 38
internal_value=4.45578e-06 0.12182 -0.121865
internal_weight=169.054 84.5456 84.5087
internal_count=1149 575 574
is_linear=0
shrinkage=0.1


Tree=11
num_leaves=4
num_cat=0
split_feature=10 0 0
split_gain=222.182 2.84217e-14 1.42109e-14
threshold=1.0000000180025095e-35 1.5796134860947613 -0.49078638241835004
decision_type=2 2 2
left_child=2 -2 -1
right_child=1 -3 -4
leaf_value=0.11931781380364066 -0.11935623470783255 -0.11935623470783255 0.11931781380364066
leaf_weight=23.474337115883827 74.186229407787323 3.8044220209121695 54.547303587198257
leaf_count=173 546 28 402
internal_value=4.49388e-06 -0.119356 0.119318
internal_weight=156.012 77.9907 78.0216
internal_count=1149 574 575
is_linear=0
shrinkage=0.1


Tree=12
num_leaves=4
num_cat=0
split_feature=10 0 1
split_gain=197.189 1.42109e-14 1.77636e-15
threshold=1.0000000180025095e-35 1.6521516239999163 -1.0000000180025095e-35
decision_type=2 2 2
left_child=1 -1 -3
right_child=-2 2 -4
leaf_value=0.1171450396037248 -0.11717848764229651 0.11714503960372478 0.1171450396037248
leaf_weight=65.217077895998955 71.812686890363693 3.7481079250574112 2.873549409210681
leaf_count=522 574 30 23
internal_value=4.52095e-06 0.117145 0.117145
internal_weight=143.651 71.8387 6.62166
internal_count=1149 575 53
is_linear=0
shrinkage=0.1


Tree=13
num_leaves=4
num_cat=0
split_feature=10 0 0
split_gain=175.388 1.42109e-14 1.42109e-14
threshold=1.0000000180025095e-35 1.6521516239999163 1.5796134860947613
decision_type=2 2 2
left_child=1 -1 -2
right_child=2 -3 -4
leaf_value=0.11524977387557855 -0.11527900984572144 0.11524977387557855 -0.11527900984572144
leaf_weight=59.931289225816727 62.775087788701057 6.0849776417016974 3.219235271215438
leaf_count=522 546 53 28
internal_value=4.54214e-06 0.11525 -0.115279
internal_weight=132.011 66.0163 65.9943
internal_count=1149 575 574
is_linear=0
shrinkage=0.1


Tree=14
num_leaves=5
num_cat=0
split_feature=10 0 0 1
split_gain=156.293 1.42109e-14 1.42109e-14 8.88178e-16
threshold=1.0000000180025095e-35 1.6521516239999163 1.4615317015916029 0.35065080483644012
decision_type=2 2 2 2
left_child=1 -1 -2 -3
right_child=2 3 -4 -5
leaf_value=0.11358973394025292 -0.11361539012509732 0.11358973394025292 -0.11361539012509732 0.11358973394025287
leaf_weight=54.979812562465668 56.429934725165367 3.4757352769374839 4.1135840266942969 2.1065062284469604
leaf_count=522 535 33 39 20
internal_value=4.55888e-06 0.11359 -0.113615 0.11359
internal_weight=121.106 60.5621 60.5435 5.58224
internal_count=1149 575 574 53
is_linear=0
shrinkage=0.1


Tree=15
num_leaves=3
num_cat=0
split_feature=10 0
split_gain=139.509 1.42109e-14
threshold=1.0000000180025095e-35 0.57929472335485799
decision_type=2 2
left_child=1 -1
right_child=-2 -3
leaf_value=0.112130521486215 -0.11215311195905815 0.112130521486215
leaf_weight=34.057010255753994 55.459606811404228 21.418289735913277
leaf_count=353 574 222
internal_value=4.56868e-06 0.112131
internal_weight=110.935 55.4753
internal_count=1149 575
is_linear=0
shrinkage=0.1


Tree=16
num_leaves=5
num_cat=0
split_feature=10 0 0 0
split_gain=124.71 7.10543e-15 7.10543e-15 7.10543e-15
threshold=1.0000000180025095e-35 1.6521516239999163 0.57929472335485799 1.5216338116749344
decision_type=2 2 2 2
left_child=1 2 -1 -2
right_child=3 -3 -4 -5
leaf_value=0.11084380859875734 -0.11086375086357723 0.11084380859875734 0.11084380859875734 -0.11086375086357723
leaf_weight=31.155423171818256 47.818744212388992 4.6777264252305022 14.915769167244433 2.9168550074100486
leaf_count=353 541 53 169 33
internal_value=4.5781e-06 0.110844 0.110844 -0.110864
internal_weight=101.485 50.7489 46.0712 50.7356
internal_count=1149 575 522 574
is_linear=0
shrinkage=0.1


Tree=17
num_leaves=3
num_cat=0
split_feature=10 2
split_gain=111.624 1.42109e-14
threshold=1.0000000180025095e-35 1.3790175403361673
decision_type=2 2
left_child=1 -1
right_child=-2 -3
leaf_value=0.10970605766985067 -0.10972372356415901 0.10970605766985067
leaf_weight=41.451941013336182 46.359996110200882 4.9193937778472892
leaf_count=514 574 61
internal_value=4.58239e-06 0.109706
internal_weight=92.7313 46.3713
internal_count=1149 575
is_linear=0
shrinkage=0.1


Tree=18
num_leaves=6
num_cat=0
split_feature=10 0 0 0 0
split_gain=100.025 7.10543e-15 7.10543e-15 1.77636e-15 1.77636e-15
threshold=1.0000000180025095e-35 0.93458303531514708 0.69110022452200137 1.2951137719694013 1.6504975274313118
decision_type=2 2 2 2 2
left_child=1 -1 -2 -3 -4
right_child=2 3 4 -5 -6
leaf_value=0.10869757387988031 -0.10871325533129106 0.10869757387988033 -0.10871325533129109 0.10869757387988029 -0.10871325533129095
leaf_weight=30.328836530447006 30.07982736825943 4.0487524494528753 10.54268459230661 7.9502775371074677 1.695676542818547
leaf_count=412 408 55 143 108 23
internal_value=4.58812e-06 0.108698 -0.108713 0.108698 -0.108713
internal_weight=84.6461 42.3279 42.3182 11.999 12.2384
internal_count=1149 575 574 163 166
is_linear=0
shrinkage=0.1


Tree=19
num_leaves=5
num_cat=0
split_feature=10 0 0 1
split_gain=89.722 7.10543e-15 7.10543e-15 7.10543e-15
threshold=1.0000000180025095e-35 1.2951137719694013 -1.4374535961275805 -1.4928216260541027
decision_type=2 2 2 2
left_child=1 3 -2 -1
right_child=2 -3 -4 -5
leaf_value=0.10780173619280552 -0.10781566888091486 0.10780173619280575 -0.10781566888091486 0.10780173619280575
leaf_weight=1.6112065315246606 2.1515564918518058 7.250429391860961 36.441988080739975 29.740187227725983
leaf_count=24 32 108 542 443
internal_value=4.59527e-06 0.107802 -0.107816 0.107802
internal_weight=77.1954 38.6018 38.5935 31.3514
internal_count=1149 575 574 467
is_linear=0
shrinkage=0.1


Tree=20
num_leaves=4
num_cat=0
split_feature=10 0 1
split_gain=80.5524 1.42109e-14 4.44089e-16
threshold=1.0000000180025095e-35 1.6521516239999163 0.35065080483644012
decision_type=2 2 2
left_child=1 -1 -3
right_child=-2 2 -4
leaf_value=0.1070044479780462 -0.1070168682047844 0.10700444797804619 0.10700444797804612
leaf_weight=31.933067992329597 35.168213650584221 2.0187571719288822 1.2234891951084135
leaf_count=522 574 33 20
internal_value=4.5919e-06 0.107004 0.107004
internal_weight=70.3435 35.1753 3.24225
internal_count=1149 575 53
is_linear=0
shrinkage=0.1


Tree=21
num_leaves=4
num_cat=0
split_feature=10 0 1
split_gain=72.3776 7.10543e-15 7.10543e-15
threshold=1.0000000180025095e-35 1.5849089963290519 1.6380218282862995
decision_type=2 2 2
left_child=2 -2 -1
right_child=1 -3 -4
leaf_value=0.10629365059461411 -0.10630472276957326 -0.10630472276957326 0.10629365059461411
leaf_weight=30.470182467252016 30.517447702586651 1.5063456818461407 1.559716835618018
leaf_count=547 547 27 28
internal_value=4.59688e-06 -0.106305 0.106294
internal_weight=64.0537 32.0238 32.0299
internal_count=1149 574 575
is_linear=0
shrinkage=0.1


Tree=22
num_leaves=6
num_cat=0
split_feature=10 0 0 6 0
split_gain=65.0787 7.10543e-15 7.10543e-15 7.10543e-15 3.55271e-15
threshold=1.0000000180025095e-35 1.6521516239999163 -1.2999420899572682 0.24556855243297651 1.4257017797364335
decision_type=2 2 2 2 2
left_child=1 3 -2 -1 -4
right_child=2 -3 4 -5 -6
leaf_value=0.10565899683908336 -0.10566889427438567 0.10565899683908341 -0.10566889427438581 0.10565899683908341 -0.10566889427438582
leaf_weight=15.612675741314893 2.2338642477989223 2.6865967996418467 24.72481565177441 10.847768209874628 2.1830946058034888
leaf_count=308 44 53 487 214 43
internal_value=4.59775e-06 0.105659 -0.105669 0.105659 -0.105669
internal_weight=58.2888 29.147 29.1418 26.4604 26.9079
internal_count=1149 575 574 522 530
is_linear=0
shrinkage=0.1


Tree=23
num_leaves=4
num_cat=0
split_feature=10 0 2
split_gain=58.5531 3.55271e-15 3.55271e-15
threshold=1.0000000180025095e-35 1.0959989663463225 -1.1136672982410516
decision_type=2 2 2
left_child=2 -2 -1
right_child=1 -3 -4
leaf_value=0.10509157619562731 -0.10510043200534676 -0.10510043200534679 0.1050915761956274
leaf_weight=4.8406754247844246 21.978851050138477 4.5250575691461554 21.667785234749317
leaf_count=105 476 98 470
internal_value=4.59643e-06 -0.1051 0.105092
internal_weight=53.0124 26.5039 26.5085
internal_count=1149 574 575
is_linear=0
shrinkage=0.1


Tree=24
num_leaves=7
num_cat=0
split_feature=10 0 0 0 0 1
split_gain=52.7117 3.55271e-15 3.55271e-15 3.55271e-15 3.55271e-15 4.44089e-16
threshold=1.0000000180025095e-35 1.6521516239999163 1.6504975274313118 -1.1539077898824879 1.398582113428122 0.048976464796507503
decision_type=2 2 2 2 2 2
left_child=1 -1 3 -2 -5 -3
right_child=2 5 -4 4 -6 -7
leaf_value=0.10458365139120669 -0.1045915795273565 0.10458365139120668 -0.10459157952735668 -0.10459157952735665 -0.10459157952735668 0.10458365139120661
leaf_weight=21.875334106385711 4.0713718235492768 1.2991098798811429 0.96537682414054771 18.090322226285938 0.96537682414054771 0.92194894701242436
leaf_count=522 97 31 23 431 23 22
internal_value=4.59855e-06 0.104584 -0.104592 -0.104592 -0.104592 0.104584
internal_weight=48.1888 24.0964 24.0924 23.1271 19.0557 2.22106
internal_count=1149 575 574 551 454 53
is_linear=0
shrinkage=0.1


Tree=25
num_leaves=5
num_cat=0
split_feature=10 0 0 0
split_gain=47.4772 3.55271e-15 3.55271e-15 3.55271e-15
threshold=1.0000000180025095e-35 1.5288766550601849 1.2801242482622401 1.0300443099079775
decision_type=2 2 2 2
left_child=-1 2 3 -2
right_child=1 -3 -4 -5
leaf_value=0.10412848986941269 -0.10413560179658846 -0.10413560179658853 -0.10413560179658853 -0.10413560179658853
leaf_weight=21.893761213868856 17.886003181338321 1.2203669548034657 1.7542774975299824 1.029684618115424
leaf_count=575 469 32 46 27
internal_value=4.59916e-06 -0.104136 -0.104136 -0.104136
internal_weight=43.7841 21.8903 20.67 18.9157
internal_count=1149 574 542 496
is_linear=0
shrinkage=0.1


Tree=26
num_leaves=5
num_cat=0
split_feature=10 0 1 2
split_gain=42.782 3.55271e-15 3.55271e-15 3.55271e-15
threshold=1.0000000180025095e-35 1.2632898960938344 -1.0102055666506466 1.5933452470928577
decision_type=2 2 2 2
left_child=2 -2 -1 -4
right_child=1 -3 3 -5
leaf_value=0.10372022916621998 -0.10372661034057547 -0.1037266103405755 0.10372022916622003 0.10372022916621981
leaf_weight=3.8731147646904018 17.14503122493625 2.73627771064639 15.250389385968447 0.76079040020704347
leaf_count=112 495 79 441 22
internal_value=4.597e-06 -0.103727 0.10372 0.10372
internal_weight=39.7656 19.8813 19.8843 16.0112
internal_count=1149 574 575 463
is_linear=0
shrinkage=0.1


Tree=27
num_leaves=3
num_cat=0
split_feature=10 0
split_gain=38.5669 3.55271e-15
threshold=1.0000000180025095e-35 1.5005460938618935
decision_type=2 2
left_child=-1 -2
right_child=1 -3
leaf_value=0.10335370411767973 -0.10335943145659038 -0.10335943145659039
leaf_weight=18.052606657147408 16.949391290545467 1.1006098240613926
leaf_count=575 539 35
internal_value=4.59562e-06 -0.103359
internal_weight=36.1026 18.05
internal_count=1149 574
is_linear=0
shrinkage=0.1


Tree=28
num_leaves=6
num_cat=0
split_feature=10 0 0 0 2
split_gain=34.7798 3.55271e-15 3.55271e-15 1.77636e-15 2.22045e-16
threshold=1.0000000180025095e-35 1.6521516239999163 1.5951324006808918 1.2951137719694013 -0.17801297054164153
decision_type=2 2 2 2 2
left_child=1 3 -2 -1 -5
right_child=2 -3 -4 4 -6
leaf_value=0.10302438970819526 -0.10302954240298817 0.10302438970819515 -0.10302954240298792 0.10302438970819511 0.10302438970819511
leaf_weight=13.306840859353541 15.639904864132404 1.5101982131600387 0.74203928187489587 0.59838042408227921 0.96880640089511938
leaf_count=467 548 53 26 21 34
internal_value=4.59818e-06 0.103024 -0.10303 0.103024 0.103024
internal_weight=32.7662 16.3842 16.3819 14.874 1.56719
internal_count=1149 575 574 522 55
is_linear=0
shrinkage=0.1


Tree=29
num_leaves=12
num_cat=0
split_feature=10 2 0 0 0 0 0 0 2 6 7
split_gain=31.375 3.55271e-15 1.77636e-15 1.77636e-15 1.77636e-15 1.77636e-15 1.77636e-15 1.77636e-15 1.77636e-15 1.77636e-15 1.77636e-15
threshold=1.0000000180025095e-35 1.5093676448714586 1.6504975274313118 1.4218444120839371 1.2864048069065428 1.0959989663463225 0.92719664112861355 0.57929472335485799 1.2549006140084524 1.2778747506699035 1.3194248110512052
decision_type=2 2 2 2 2 2 2 2 2 2 2
left_child=1 9 3 4 5 6 7 8 10 -1 -2
right_child=2 -3 -4 -5 -6 -7 -8 -9 -10 -11 -12
leaf_value=0.10272832199195236 -0.10273294941217787 0.10272832199195217 -0.10273294941217737 -0.10273294941217735 -0.10273294941217746 -0.10273294941217735 -0.1027329494121775 -0.10273294941217755 -0.10273294941217746 0.10272832199195225 -0.10273294941217746
leaf_weight=12.357846461236475 8.1568591296672661 0.90486323460936624 0.59558019042015153 0.54379060864448625 0.85452809929847795 0.54379060864448625 0.98400205373764116 1.4760030806064612 0.85452809929847795 1.6029005870223052 0.85452809929847795
leaf_count=478 315 35 23 21 33 21 38 57 33 62 33
internal_value=4.59846e-06 0.102728 -0.102733 -0.102733 -0.102733 -0.102733 -0.102733 -0.102733 -0.102733 0.102728 -0.102733
internal_weight=29.7292 14.8656 14.8636 14.268 13.7242 12.8697 12.3259 11.3419 9.86592 13.9607 9.01139
internal_count=1149 575 574 551 530 497 476 438 381 540 348
is_linear=0
shrinkage=0.1


Tree=30
num_leaves=5
num_cat=0
split_feature=10 0 0 0
split_gain=28.3118 3.55271e-15 1.77636e-15 1.77636e-15
threshold=1.0000000180025095e-35 1.4949988131256047 1.6521516239999163 1.1617142789727921
decision_type=2 2 2 2
left_child=2 3 -1 -2
right_child=1 -3 -4 -5
leaf_value=0.10246196324334732 -0.10246613041643322 -0.10246613041643299 0.10246196324334718 -0.10246613041643304
leaf_weight=12.24125986173749 11.391913089901204 0.84558530151844102 1.242886537685991 1.2448894716799266
leaf_count=522 485 36 53 53
internal_value=4.59828e-06 -0.102466 0.102462 -0.102466
internal_weight=26.9665 13.4824 13.4841 12.6368
internal_count=1149 574 575 538
is_linear=0
shrinkage=0.1


Tree=31
num_leaves=10
num_cat=0
split_feature=10 0 0 0 0 0 0 2 0
split_gain=25.5546 1.77636e-15 1.77636e-15 1.77636e-15 1.77636e-15 1.77636e-15 1.77636e-15 1.77636e-15 2.22045e-16
threshold=1.0000000180025095e-35 1.6521516239999163 1.2951137719694013 0.93458303531514708 1.6521516239999163 1.2928419232740684 1.0866071878272057 1.5349711834194755 1.410885074600458
decision_type=2 2 2 2 2 2 2 2 2
left_child=1 2 3 7 5 6 -2 -1 -7
right_child=4 -3 -4 -5 -6 8 -8 -9 -10
leaf_value=0.10222219769794078 -0.10222595070279057 0.10222219769794057 0.10222219769794059 0.10222219769794059 -0.10222595070279013 -0.10222595070279027 -0.10222595070279016 0.10222219769794035 -0.10222595070279031
leaf_weight=8.2938556373119301 10.117807518690817 1.1271137148141868 1.1696463078260428 1.1696463078260428 0.46861424297094423 0.66032006964087553 0.48991489037871438 0.46785852313041765 0.48991489037871361
leaf_count=390 475 53 55 55 22 31 23 22 23
internal_value=4.59803e-06 0.102222 0.102222 0.102222 -0.102226 -0.102226 -0.102226 0.102222 -0.102226
internal_weight=24.4547 12.2281 11.101 9.93136 12.2266 11.758 10.6077 8.76171 1.15023
internal_count=1149 575 522 467 574 552 498 412 54
is_linear=0
shrinkage=0.1


Tree=32
num_leaves=8
num_cat=0
split_feature=10 0 0 1 1 6 0
split_gain=23.0714 3.55271e-15 1.77636e-15 1.77636e-15 1.77636e-15 1.77636e-15 2.22045e-16
threshold=1.0000000180025095e-35 1.5951324006808918 1.2801242482622401 1.6380218282862995 1.5120547186503204 1.6014194979395115 1.398582113428122
decision_type=2 2 2 2 2 2 2
left_child=3 2 -2 4 5 -1 -4
right_child=1 -3 6 -5 -6 -7 -8
leaf_value=0.10200626671554842 -0.10200964056498524 -0.10200964056498484 -0.1020096405649849 0.10200626671554808 0.10200626671554801 0.10200626671554794 -0.10200964056498492
leaf_weight=9.7177243977785075 9.5789561271667427 0.50212270021438676 0.61799716949462957 0.5398735776543625 0.44346758164465505 0.38562398403883058 0.38624823093414307
leaf_count=504 496 26 32 28 23 20 20
internal_value=4.59454e-06 -0.10201 -0.10201 0.102006 0.102006 0.102006 -0.10201
internal_weight=22.172 11.0853 10.5832 11.0867 10.5468 10.1033 1.00425
internal_count=1149 574 548 575 547 524 52
is_linear=0
shrinkage=0.1


Tree=33
num_leaves=11
num_cat=0
split_feature=10 3 0 0 0 0 0 0 6 1
split_gain=20.834 3.55271e-15 1.77636e-15 1.77636e-15 1.77636e-15 1.77636e-15 1.77636e-15 1.77636e-15 1.77636e-15 2.22045e-16
threshold=1.0000000180025095e-35 1.5484175325570433 1.6521516239999163 1.4218444120839371 1.1899152506605797 0.98965888224155629 -0.088918602186498649 -0.39227650029514333 1.4497876518001995 0.42051712994300566
decision_type=2 2 2 2 2 2 2 2 2 2
left_child=1 8 3 4 5 6 7 -2 -1 -3
right_child=2 9 -4 -5 -6 -7 -8 -9 -10 -11
leaf_value=0.10181170502117243 -0.10181475114920842 0.10181170502117215 -0.10181475114920786 -0.10181475114920786 -0.10181475114920809 -0.10181475114920786 -0.10181475114920846 -0.10181475114920827 0.10181170502117216 0.10181170502117226
leaf_weight=8.3195246309041959 4.1665086001157716 0.55929577350616522 0.38513945043087083 0.38513945043087083 0.71775988489389497 0.38513945043087083 2.9235585555434183 1.0853929966688154 0.64668573811650354 0.52433978766202927
leaf_count=476 238 32 22 22 41 22 167 62 37 30
internal_value=4.594e-06 0.101812 -0.101815 -0.101815 -0.101815 -0.101815 -0.101815 -0.101815 0.101812 0.101812
internal_weight=20.0985 10.0498 10.0486 9.6635 9.27836 8.5606 8.17546 5.2519 8.96621 1.08364
internal_count=1149 575 574 552 530 489 467 300 513 62
is_linear=0
shrinkage=0.1


Tree=34
num_leaves=6
num_cat=0
split_feature=10 0 0 3 1
split_gain=18.8172 1.77636e-15 1.77636e-15 1.77636e-15 1.11022e-16
threshold=1.0000000180025095e-35 1.6521516239999163 1.5849089963290519 1.305490026729478 0.35065080483644012
decision_type=2 2 2 2 2
left_child=1 -1 3 -2 -3
right_child=2 4 -4 -5 -6
leaf_value=0.101636321519029 -0.10163907964069858 0.10163632151902868 -0.10163907964069813 -0.10163907964069825 0.10163632151902871
leaf_weight=8.268815204501152 8.0442519206553644 0.52274119108915407 0.42839211411774236 0.63465498387813646 0.31681284308433533
leaf_count=522 507 33 27 40 20
internal_value=4.59243e-06 0.101636 -0.101639 -0.101639 0.101636
internal_weight=18.2157 9.10837 9.1073 8.67891 0.839554
internal_count=1149 575 574 547 53
is_linear=0
shrinkage=0.1


Tree=35
num_leaves=4
num_cat=0
split_feature=10 0 1
split_gain=16.9986 1.77636e-15 1.77636e-15
threshold=1.0000000180025095e-35 1.6521516239999163 0.48988538202268023
decision_type=2 2 2
left_child=2 -2 -1
right_child=1 -3 -4
leaf_value=0.10147819453336689 -0.10148067097547152 -0.10148067097547123 0.10147819453336691
leaf_weight=5.2824206948280352 7.9365228787064535 0.31631069444119919 2.9713616408407688
leaf_count=368 552 22 207
internal_value=4.59458e-06 -0.101481 0.101478
internal_weight=16.5066 8.25283 8.25378
internal_count=1149 574 575
is_linear=0
shrinkage=0.1


Tree=36
num_leaves=5
num_cat=0
split_feature=10 0 0 0
split_gain=15.3583 1.77636e-15 8.88178e-16 2.22045e-16
threshold=1.0000000180025095e-35 1.2951137719694013 1.6521516239999163 1.6521516239999163
decision_type=2 2 2 2
left_child=1 -1 -2 -3
right_child=2 3 -4 -5
leaf_value=0.10133554861382775 -0.10133778013701444 0.10133554861382765 -0.10133778013701414 0.10133554861382761
leaf_weight=6.0736875431612134 7.1908732876181602 0.71531652007251956 0.28659277595579613 0.68930501025170088
leaf_count=467 552 55 22 53
internal_value=4.59627e-06 0.101336 -0.101338 0.101336
internal_weight=14.9558 7.47831 7.47747 1.40462
internal_count=1149 575 574 108
is_linear=0
shrinkage=0.1


Tree=37
num_leaves=6
num_cat=0
split_feature=10 0 0 2 2
split_gain=13.8782 8.88178e-16 8.88178e-16 8.88178e-16 8.88178e-16
threshold=1.0000000180025095e-35 -0.49078638241835004 1.6521516239999163 1.5633198757473223 1.425780788571011
decision_type=2 2 2 2 2
left_child=1 -1 -2 4 -3
right_child=2 3 -4 -5 -6
leaf_value=0.10120683928554769 -0.10120885908478704 0.1012068392855477 -0.1012088590847867 0.10120683928554737 0.10120683928554736
leaf_weight=2.0383375305682421 6.514437697827816 4.2534095291048288 0.25963338650763024 0.24742825515568245 0.23564595729112614
leaf_count=173 552 361 22 21 20
internal_value=4.59387e-06 0.101207 -0.101209 0.101207 0.101207
internal_weight=13.5489 6.77482 6.77407 4.73648 4.48906
internal_count=1149 575 574 402 381
is_linear=0
shrinkage=0.1


Tree=38
num_leaves=4
num_cat=0
split_feature=10 0 2
split_gain=12.5423 8.88178e-16 8.88178e-16
threshold=1.0000000180025095e-35 1.1042985143934632 -0.53482610576227918
decision_type=2 2 2
left_child=2 -2 -1
right_child=1 -3 -4
leaf_value=0.10109067284832124 -0.10109249261440806 -0.10109249261440799 0.10109067284832125
leaf_weight=2.1025201817974448 5.0991877075284719 1.0369417350739238 4.0342773031443357
leaf_count=197 477 97 378
internal_value=4.59275e-06 -0.101092 0.101091
internal_weight=12.2729 6.13613 6.1368
internal_count=1149 574 575
is_linear=0
shrinkage=0.1


Tree=39
num_leaves=5
num_cat=0
split_feature=10 0 1 1
split_gain=11.3364 8.88178e-16 8.88178e-16 8.88178e-16
threshold=1.0000000180025095e-35 1.6307944315277767 -1.3523827559661532 -1.1450890496740427
decision_type=2 2 2 2
left_child=2 -2 -1 -4
right_child=1 -3 3 -5
leaf_value=0.1009858085232101 -0.10098745071234978 -0.10098745071234944 0.10098580852320999 0.10098580852321025
leaf_weight=0.51232813578099001 5.3253042045980692 0.23237691074609745 0.30933019518852223 4.7366186138242483
leaf_count=53 550 24 32 490
internal_value=4.59192e-06 -0.100987 0.100986 0.100986
internal_weight=11.116 5.55768 5.55828 5.04595
internal_count=1149 574 575 522
is_linear=0
shrinkage=0.1


Tree=40
num_leaves=10
num_cat=0
split_feature=10 0 0 0 0 0 1 1 0
split_gain=10.2475 8.88178e-16 8.88178e-16 8.88178e-16 8.88178e-16 1.11022e-16 1.11022e-16 1.11022e-16 5.55112e-17
threshold=1.0000000180025095e-35 1.2951137719694013 1.555631622234346 1.0368349740984442 0.17439327526095405 1.3385161187239709 0.48988538202268023 -0.39847767614978175 1.2951137719694013
decision_type=2 2 2 2 2 2 2 2 2
left_child=1 -1 3 4 -2 8 7 -3 -5
right_child=2 6 -4 5 -6 -7 -8 -9 -10
leaf_value=0.10089111370330002 -0.10089260006064521 0.10089111370329978 -0.10089260006064488 -0.10089260006064488 -0.10089260006064515 -0.10089260006064465 0.10089111370329971 0.10089111370329969 -0.10089260006064478
leaf_weight=4.0883350605145097 2.8761626407504082 0.38519645109772682 0.25429486762732256 0.25429486762732256 1.2451679725199936 0.17537577077746391 0.30640626791864634 0.25387947913259257 0.22798850201070309
leaf_count=467 328 44 29 29 142 20 35 29 26
internal_value=4.59488e-06 0.100891 -0.100893 -0.100893 -0.100893 -0.100893 0.100891 0.100891 -0.100893
internal_weight=10.0671 5.03382 5.03328 4.77899 4.12133 0.657659 0.945482 0.639076 0.482283
internal_count=1149 575 574 545 470 75 108 73 55
is_linear=0
shrinkage=0.1


Tree=41
num_leaves=3
num_cat=0
split_feature=10 1
split_gain=9.26403 8.88178e-16
threshold=1.0000000180025095e-35 -0.66818166954042202
decision_type=2 2
left_child=1 -1
right_child=-2 -3
leaf_value=0.10080559403558494 -0.10080693938313856 0.10080559403558496
leaf_weight=1.4983439147472379 4.5579774621874094 3.0601097941398621
leaf_count=189 574 386
internal_value=4.59349e-06 0.100806
internal_weight=9.11643 4.55845
internal_count=1149 575
is_linear=0
shrinkage=0.1


Tree=42
num_leaves=2
num_cat=0
split_feature=10
split_gain=8.37569
threshold=1.0000000180025095e-35
decision_type=2
left_child=-1
right_child=-2
leaf_value=0.10072835003978382 -0.10072956107625995
leaf_weight=4.1276617674157023 4.1272357618436217
leaf_count=575 574
internal_value=4.59274e-06
internal_weight=8.2549
internal_count=1149
is_linear=0
shrinkage=0.1


Tree=43
num_leaves=10
num_cat=0
split_feature=10 8 2 2 0 2 2 6 0
split_gain=7.57311 8.88178e-16 4.44089e-16 4.44089e-16 2.22045e-16 2.22045e-16 2.22045e-16 2.22045e-16 1.11022e-16
threshold=1.0000000180025095e-35 -0.27243699388023551 -0.18561863993113512 0.71226685972641546 0.98965888224155629 -0.32353798644939735 -1.6130256573150812 0.83365132907731077 0.57929472335485799
decision_type=2 2 2 2 2 2 2 2 2
left_child=2 -2 5 7 8 6 -1 -4 -3
right_child=1 4 3 -5 -6 -7 -8 -9 -10
leaf_value=0.10065855546084208 -0.10065965169675145 -0.10065965169675134 0.10065855546084249 0.1006585554608426 -0.10065965169675095 0.10065855546084164 0.10065855546084262 0.10065855546084231 -0.10065965169675094
leaf_weight=0.14949282724410284 2.5650765849277377 0.80077263945713661 0.70846600737422738 1.0464497907087205 0.1888000532053411 0.12999376282095942 1.4299313910305498 0.27298690192401409 0.18228970654308796
leaf_count=23 394 123 109 161 29 20 220 42 28
internal_value=4.59236e-06 -0.10066 0.100659 0.100659 -0.10066 0.100659 0.100659 0.100659 -0.10066
internal_weight=7.47426 3.73694 3.73732 2.0279 1.17186 1.70942 1.57942 0.981453 0.983062
internal_count=1149 574 575 312 180 263 243 151 151
is_linear=0
shrinkage=0.1


Tree=44
num_leaves=5
num_cat=0
split_feature=10 0 2 2
split_gain=6.84792 4.44089e-16 4.44089e-16 5.55112e-17
threshold=1.0000000180025095e-35 1.6521516239999163 -1.2944744077316435 -1.6130256573150812
decision_type=2 2 2 2
left_child=2 -2 3 -1
right_child=1 -3 -4 -5
leaf_value=0.10059549527221595 -0.10059647898695741 -0.10059647898695677 0.10059549527221666 0.10059549527221626
leaf_weight=0.13534718938171864 3.2536626309156422 0.12967495992779721 2.9482148643583059 0.30011768080294166
leaf_count=23 552 22 501 51
internal_value=4.59432e-06 -0.100596 0.100595 0.100595
internal_weight=6.76702 3.38334 3.38368 0.435465
internal_count=1149 574 575 74
is_linear=0
shrinkage=0.1


Tree=45
num_leaves=5
num_cat=0
split_feature=10 0 1 0
split_gain=6.19256 4.44089e-16 4.44089e-16 1.11022e-16
threshold=1.0000000180025095e-35 -0.78287979283428533 0.5567248327146469 -0.87773651346062243
decision_type=2 2 2 2
left_child=2 3 -1 -2
right_child=1 -3 -4 -5
leaf_value=0.10053850377605565 -0.10053940130495431 -0.10053940130495442 0.10053850377605562 -0.10053940130495372
leaf_weight=1.9924945551902058 0.70972418459132314 2.1718627302907407 1.0708326352760194 0.18143325019627843
leaf_count=374 133 407 201 34
internal_value=4.5898e-06 -0.100539 0.100539 -0.100539
internal_weight=6.12635 3.06302 3.06333 0.891157
internal_count=1149 574 575 167
is_linear=0
shrinkage=0.1


Tree=46
num_leaves=3
num_cat=0
split_feature=10 0
split_gain=5.60024 4.44089e-16
threshold=1.0000000180025095e-35 1.5951324006808918
decision_type=2 2
left_child=-1 -2
right_child=1 -3
leaf_value=0.10048700033802971 -0.10048781150807551 -0.10048781150807484
leaf_weight=2.7731616399250925 2.6472847778350119 0.12560110259801138
leaf_count=575 548 26
internal_value=4.59083e-06 -0.100488
internal_weight=5.54605 2.77289
internal_count=1149 574
is_linear=0
shrinkage=0.1


Tree=47
num_leaves=6
num_cat=0
split_feature=10 0 0 1 0
split_gain=5.06484 4.44089e-16 4.44089e-16 1.11022e-16 5.55112e-17
threshold=1.0000000180025095e-35 1.6521516239999163 -1.1102012036694908 0.30013338656259986 -1.2714329907540647
decision_type=2 2 2 2 2
left_child=1 -1 3 4 -2
right_child=2 -3 -4 -5 -6
leaf_value=0.10044044142696447 -0.10044116702788049 0.10044044142696414 -0.10044116702788122 -0.10044116702788063 -0.10044116702788053
leaf_weight=2.2789743114262824 0.12681774282827973 0.23139011207967985 2.0509490133263171 0.15305589651688933 0.17929405020549927
leaf_count=522 29 53 469 35 41
internal_value=4.59315e-06 0.10044 -0.100441 -0.100441 -0.100441
internal_weight=5.02048 2.51036 2.51012 0.459168 0.306112
internal_count=1149 575 574 105 70
is_linear=0
shrinkage=0.1


Tree=48
num_leaves=3
num_cat=0
split_feature=10 2
split_gain=4.58084 4.44089e-16
threshold=1.0000000180025095e-35 -1.5414566870340518
decision_type=2 2
left_child=1 -1
right_child=-2 -3
leaf_value=0.10039834971256319 -0.10039900168409339 0.10039834971256414
leaf_weight=0.1343665532767776 2.2721528001129627 2.1380089800804853
leaf_count=34 574 541
internal_value=4.59468e-06 0.100398
internal_weight=4.54453 2.27238
internal_count=1149 575
is_linear=0
shrinkage=0.1


Tree=49
num_leaves=2
num_cat=0
split_feature=10
split_gain=4.14326
threshold=1.0000000180025095e-35
decision_type=2
left_child=-1
right_child=-2
leaf_value=0.10036029474459783 -0.10036089233941708
leaf_weight=2.0568703184835613 2.0566699556075037
leaf_count=575 574
internal_value=4.58958e-06
internal_weight=4.11354
internal_count=1149
is_linear=0
shrinkage=0.1


Tree=50
num_leaves=5
num_cat=0
split_feature=10 1 0 0
split_gain=3.74763 4.44089e-16 2.22045e-16 2.22045e-16
threshold=1.0000000180025095e-35 -1.213920503211519 1.4615317015916029 1.1291702141007804
decision_type=2 2 2 2
left_child=1 -1 3 -2
right_child=2 -3 -4 -5
leaf_value=0.1003258960433326 -0.1003264376754593 0.10032589604333286 -0.10032643767545867 -0.10032643767545885
leaf_weight=0.24931113584898401 1.5599471777677534 1.6124278656207027 0.12648220360279072 0.1751292049884795
leaf_count=77 481 498 39 54
internal_value=4.59056e-06 0.100326 -0.100326 -0.100326
internal_weight=3.7233 1.86174 1.86156 1.73508
internal_count=1149 575 574 535
is_linear=0
shrinkage=0.1


Tree=51
num_leaves=7
num_cat=0
split_feature=10 0 4 4 1 4
split_gain=3.38989 2.22045e-16 2.22045e-16 2.22045e-16 1.11022e-16 2.77556e-17
threshold=1.0000000180025095e-35 -0.49078638241835004 -1.0954241938744949 0.70336462062180127 1.5744536728092744 -1.3058979144557443
decision_type=2 2 2 2 2 2
left_child=1 4 5 -4 -1 -2
right_child=2 -3 3 -5 -6 -7
leaf_value=0.10029478918171988 -0.10029527255363579 0.10029478918171997 -0.10029527255363635 -0.10029527255363624 0.10029478918171837 -0.100295272553635
leaf_weight=0.44837434915825713 0.15851019183173776 1.1780816232785585 0.96280264668166615 0.5019489408005029 0.058611026033759117 0.061642852379009017
leaf_count=153 54 402 328 171 20 21
internal_value=4.59057e-06 0.100295 -0.100295 -0.100295 0.100295 -0.100295
internal_weight=3.36997 1.68507 1.6849 1.46475 0.506985 0.220153
internal_count=1149 575 574 499 173 75
is_linear=0
shrinkage=0.1


Tree=52
num_leaves=5
num_cat=0
split_feature=10 0 2 2
split_gain=3.06639 2.22045e-16 2.22045e-16 5.55112e-17
threshold=1.0000000180025095e-35 1.5849089963290519 -0.8578159299570588 -1.0348212020687417
decision_type=2 2 2 2
left_child=2 -2 3 -1
right_child=1 -3 -4 -5
leaf_value=0.10026665484538078 -0.10026709302929866 -0.10026709302929748 0.10026665484538098 0.10026665484537976
leaf_weight=0.32093782909214497 1.4532392744440583 0.071732103126123437 1.1378704849630596 0.066309468820690998
leaf_count=121 547 27 429 25
internal_value=4.59375e-06 -0.100267 0.100267 0.100267
internal_weight=3.05009 1.52497 1.52512 0.387247
internal_count=1149 574 575 146
is_linear=0
shrinkage=0.1


Tree=53
num_leaves=8
num_cat=0
split_feature=10 0 0 0 0 1 1
split_gain=2.77384 2.22045e-16 2.22045e-16 2.22045e-16 1.11022e-16 5.55112e-17 2.77556e-17
threshold=1.0000000180025095e-35 -0.84787619399571057 0.96322652711098555 1.2951137719694013 0.57929472335485799 1.2384514364267523 0.42051712994300566
decision_type=2 2 2 2 2 2 2
left_child=1 -1 -2 4 -3 6 -6
right_child=2 3 -4 -5 5 -7 -8
leaf_value=0.10024121551670424 -0.1002416130440057 0.10024121551670438 -0.10024161304400546 0.1002412155167042 0.10024121551670398 0.10024121551670279 0.10024121551670284
leaf_weight=0.25445825699716795 1.1156888790428636 0.59293574979528807 0.26449520839378227 0.25925935618579388 0.16083682281896472 0.055212640669196844 0.05761319026350975
leaf_count=106 464 247 110 108 67 23 24
internal_value=4.59195e-06 0.100241 -0.100242 0.100241 0.100241 0.100241 0.100241
internal_weight=2.7605 1.38032 1.38018 1.12586 0.866598 0.273663 0.21845
internal_count=1149 575 574 469 361 114 91
is_linear=0
shrinkage=0.1


Tree=54
num_leaves=7
num_cat=0
split_feature=10 0 0 2 2 2
split_gain=2.50927 2.22045e-16 2.22045e-16 2.77556e-17 2.77556e-17 1.38778e-17
threshold=1.0000000180025095e-35 -0.84787619399571057 1.6078735511531306 0.9268474036777159 -0.20875153437313346 -0.83627790563367521
decision_type=2 2 2 2 2 2
left_child=1 3 -2 4 5 -1
right_child=2 -3 -4 -5 -6 -7
leaf_value=0.10021820433510714 -0.1002185731428825 0.1002182043351084 -0.10021857314288095 0.10021820433510682 0.10021820433510667 0.10021820433510663
leaf_weight=0.071695154998451471 1.194710813462734 1.0189402331598105 0.054403953254222759 0.058659672271460295 0.047796769998967537 0.052141930907964706
leaf_count=33 549 469 25 27 22 24
internal_value=4.58893e-06 0.100218 -0.100219 0.100218 0.100218 0.100218
internal_weight=2.49835 1.24923 1.24911 0.230294 0.171634 0.123837
internal_count=1149 575 574 106 79 57
is_linear=0
shrinkage=0.1


Tree=55
num_leaves=3
num_cat=0
split_feature=10 0
split_gain=2.26999 2.22045e-16
threshold=1.0000000180025095e-35 -1.2122053477395027
decision_type=2 2
left_child=-1 -2
right_child=1 -3
leaf_value=0.10019741030270753 -0.10019772406303531 -0.10019772406303612
leaf_weight=1.1305761523544791 0.10044236155226816 1.0300265704281626
leaf_count=575 51 523
internal_value=4.59456e-06 -0.100198
internal_weight=2.26105 1.13047
internal_count=1149 574
is_linear=0
shrinkage=0.1


Tree=56
num_leaves=5
num_cat=0
split_feature=10 0 0 1
split_gain=2.05356 2.22045e-16 2.22045e-16 1.11022e-16
threshold=1.0000000180025095e-35 1.6521516239999163 1.4662048283512539 1.5120547186503204
decision_type=2 2 2 2
left_child=1 3 -2 -1
right_child=2 -3 -4 -5
leaf_value=0.10017857849658691 -0.10017887262565622 0.10017857849658598 -0.10017887262565482 0.1001785784965859
leaf_weight=0.84166861081030242 0.95534372329711892 0.094309590640477836 0.067729592323303223 0.087191885686479509
leaf_count=473 536 53 38 49
internal_value=4.59062e-06 0.100179 -0.100179 0.100179
internal_weight=2.04624 1.02317 1.02307 0.92886
internal_count=1149 575 574 522
is_linear=0
shrinkage=0.1


Tree=57
num_leaves=4
num_cat=0
split_feature=10 1 1
split_gain=1.85781 1.11022e-16 1.11022e-16
threshold=1.0000000180025095e-35 1.0998933347122832 0.13824037881895576
decision_type=2 2 2
left_child=1 2 -1
right_child=-2 -3 -4
leaf_value=0.10016155790749959 -0.10016182623015386 0.10016155790749925 0.10016155790749937
leaf_weight=0.49920885474421084 0.92586457286961377 0.18680073274299502 0.23994232050608844
leaf_count=310 574 116 149
internal_value=4.58965e-06 0.100162 0.100162
internal_weight=1.85182 0.925952 0.739151
internal_count=1149 575 459
is_linear=0
shrinkage=0.1


Tree=58
num_leaves=4
num_cat=0
split_feature=10 0 1
split_gain=1.68074 1.11022e-16 1.11022e-16
threshold=1.0000000180025095e-35 1.6521516239999163 1.4429334647918697
decision_type=2 2 2
left_child=2 -2 -1
right_child=1 -3 -4
leaf_value=0.1001461543574064 -0.10014640039027332 -0.10014640039027033 0.10014615435740543
leaf_weight=0.74760447442531586 0.80576554778963327 0.032113844295963645 0.09035375714302063
leaf_count=513 552 22 62
internal_value=4.58835e-06 -0.100146 0.100146
internal_weight=1.67584 0.837879 0.837958
internal_count=1149 574 575
is_linear=0
shrinkage=0.1


Tree=59
num_leaves=4
num_cat=0
split_feature=10 0 1
split_gain=1.52058 2.22045e-16 1.11022e-16
threshold=1.0000000180025095e-35 1.6504975274313118 1.6380218282862995
decision_type=2 2 2
left_child=2 -2 -1
right_child=1 -3 -4
leaf_value=0.10013223291070575 -0.10013244715619313 -0.10013244715618996 0.10013223291070317
leaf_weight=0.72138934768736362 0.72786223806906492 0.030382634256966412 0.036926694214344025
leaf_count=547 551 23 28
internal_value=4.59191e-06 -0.100132 0.100132
internal_weight=1.51656 0.758245 0.758316
internal_count=1149 574 575
is_linear=0
shrinkage=0.1


Tree=60
num_leaves=3
num_cat=0
split_feature=10 0
split_gain=1.37569 1.11022e-16
threshold=1.0000000180025095e-35 1.6504975274313118
decision_type=2 2
left_child=-1 -2
right_child=1 -3
leaf_value=0.1001196390325049 -0.10011983168055519 -0.1001198316805517
leaf_weight=0.68623465776909143 0.65867580357007682 0.027494634268805385
leaf_count=575 551 23
internal_value=4.58865e-06 -0.10012
internal_weight=1.37241 0.68617
internal_count=1149 574
is_linear=0
shrinkage=0.1


Tree=61
num_leaves=3
num_cat=0
split_feature=10 1
split_gain=1.24463 1.11022e-16
threshold=1.0000000180025095e-35 1.6380218282862995
decision_type=2 2
left_child=1 -1
right_child=-2 -3
leaf_value=0.10010823427757241 -0.10010841126805654 0.10010823427756928
leaf_weight=0.59075800306163728 0.62093988619744778 0.030239897780120373
leaf_count=547 574 28
internal_value=4.58787e-06 0.100108
internal_weight=1.24194 0.620998
internal_count=1149 575
is_linear=0
shrinkage=0.1


Tree=62
num_leaves=5
num_cat=0
split_feature=10 0 0 0
split_gain=1.12607 1.11022e-16 1.11022e-16 1.11022e-16
threshold=1.0000000180025095e-35 1.6521516239999163 1.6521516239999163 1.4218444120839371
decision_type=2 2 2 2
left_child=1 -1 3 -2
right_child=2 -3 -4 -5
leaf_value=0.10009792633452455 -0.10009808623621044 0.10009792633452282 -0.100098086236206 -0.100098086236206
leaf_weight=0.51015928527340293 0.51883180974982679 0.051797781838104129 0.021536414744332433 0.021536414744332433
leaf_count=522 530 53 22 22
internal_value=4.5896e-06 0.100098 -0.100098 -0.100098
internal_weight=1.12386 0.561957 0.561905 0.540368
internal_count=1149 575 574 552
is_linear=0
shrinkage=0.1


Tree=63
num_leaves=4
num_cat=0
split_feature=10 0 0
split_gain=1.01881 1.11022e-16 2.77556e-17
threshold=1.0000000180025095e-35 0.88312413203289852 1.6078735511531306
decision_type=2 2 2
left_child=-1 -2 -3
right_child=1 2 -4
leaf_value=0.10008859581458636 -0.10008874566226474 -0.10008874566226406 -0.1000887456622605
leaf_weight=0.50852476852014661 0.38091512164101005 0.10541604529134929 0.022146228002384305
leaf_count=575 430 119 25
internal_value=4.58737e-06 -0.100089 -0.100089
internal_weight=1.017 0.508477 0.127562
internal_count=1149 574 144
is_linear=0
shrinkage=0.1


Tree=64
num_leaves=5
num_cat=0
split_feature=10 0 0 0
split_gain=0.921773 1.11022e-16 5.55112e-17 1.38778e-17
threshold=1.0000000180025095e-35 -0.88212090885382499 1.2951137719694013 -1.2999420899572682
decision_type=2 2 2 2
left_child=2 3 -1 -2
right_child=1 -3 -4 -5
leaf_value=0.10008015886598416 -0.10008029557601446 -0.10008029557601701 0.10008015886598327 -0.10008029557601586
leaf_weight=0.37373731896514073 0.035271001514047384 0.35511485615279526 0.086431756848469377 0.069740389357320964
leaf_count=467 44 443 108 87
internal_value=4.58919e-06 -0.10008 0.10008 -0.10008
internal_weight=0.920295 0.460126 0.460169 0.105011
internal_count=1149 574 575 131
is_linear=0
shrinkage=0.1


Tree=65
num_leaves=4
num_cat=0
split_feature=10 0 0
split_gain=0.833987 5.55112e-17 5.55112e-17
threshold=1.0000000180025095e-35 1.555631622234346 1.2469163120610631
decision_type=2 2 2
left_child=-1 2 -2
right_child=1 -3 -4
leaf_value=0.10007252363106499 -0.10007264496272997 -0.10007264496272548 -0.10007264496272755
leaf_weight=0.41640833078417927 0.35833902808371931 0.021036096790339798 0.036994515045080334
leaf_count=575 494 29 51
internal_value=4.58871e-06 -0.100073 -0.100073
internal_weight=0.832778 0.41637 0.395334
internal_count=1149 574 545
is_linear=0
shrinkage=0.1


Tree=66
num_leaves=4
num_cat=0
split_feature=10 1 0
split_gain=0.754568 1.11022e-16 5.55112e-17
threshold=1.0000000180025095e-35 1.5120547186503204 1.2951137719694013
decision_type=2 2 2
left_child=2 -2 -1
right_child=1 -3 -4
leaf_value=0.10006561417514857 -0.10006572783691808 -0.1000657278369111 0.10006561417514748
leaf_weight=0.30603243189398199 0.36298723221989349 0.01378432527417317 0.070774095598608255
leaf_count=467 553 21 108
internal_value=4.58674e-06 -0.100066 0.100066
internal_weight=0.753578 0.376772 0.376807
internal_count=1149 574 575
is_linear=0
shrinkage=0.1


Tree=67
num_leaves=7
num_cat=0
split_feature=10 0 0 0 1 2
split_gain=0.682717 5.55112e-17 5.55112e-17 2.77556e-17 1.38778e-17 6.93889e-18
threshold=1.0000000180025095e-35 0.93458303531514708 1.5216338116749344 0.2206181985740879 0.75495400483063824 -0.76685339272455733
decision_type=2 2 2 2 2 2
left_child=1 3 -2 -1 5 -5
right_child=2 -3 -4 4 -6 -7
leaf_value=0.10005936699354122 -0.10005946523816787 0.10005936699354075 -0.10005946523816307 0.10005936699353445 0.10005936699353697 0.10005936699353866
leaf_weight=0.17789679695852101 0.32133632461773232 0.096657259680796415 0.019600921834353358 0.013638754433486611 0.020754626311827451 0.032021423452533782
leaf_count=300 541 163 33 23 35 54
internal_value=4.58981e-06 0.100059 -0.100059 0.100059 0.100059 0.100059
internal_weight=0.681906 0.340969 0.340937 0.244312 0.0664148 0.0456602
internal_count=1149 575 574 412 112 77
is_linear=0
shrinkage=0.1


Tree=68
num_leaves=4
num_cat=0
split_feature=10 2 0
split_gain=0.617711 1.11022e-16 5.55112e-17
threshold=1.0000000180025095e-35 1.3298738165076454 1.363434530288971
decision_type=2 2 2
left_child=1 -1 -2
right_child=2 -3 -4
leaf_value=0.10005371803196708 -0.1000538028534786 0.10005371803196467 -0.10005380285347508
leaf_weight=0.27258653705939651 0.28271065012086183 0.03595137398224324 0.025798690505325794
leaf_count=508 526 67 48
internal_value=4.59026e-06 0.100054 -0.100054
internal_weight=0.617047 0.308538 0.308509
internal_count=1149 575 574
is_linear=0
shrinkage=0.1


Tree=69
num_leaves=2
num_cat=0
split_feature=10
split_gain=0.558898
threshold=1.0000000180025095e-35
decision_type=2
left_child=-1
right_child=-2
leaf_value=0.10004860546841154 -0.10004868101381184
leaf_weight=0.2791901963064447 0.27916436950908974
leaf_count=575 574
internal_value=4.59e-06
internal_weight=0.558355
internal_count=1149
is_linear=0
shrinkage=0.1


Tree=70
num_leaves=5
num_cat=0
split_feature=10 0 1 1
split_gain=0.505687 5.55112e-17 5.55112e-17 6.93889e-18
threshold=1.0000000180025095e-35 1.6504975274313118 1.0207143107303893 1.4429334647918697
decision_type=2 2 2 2
left_child=2 -2 -1 -4
right_child=1 -3 3 -5
leaf_value=0.10004397753522259 -0.10004405060270785 -0.10004405060269839 0.10004397753521965 0.10004397753521943
leaf_weight=0.19639456202276051 0.24248748511308804 0.010121982137206942 0.028997854795306921 0.027240409050136805
leaf_count=447 551 23 66 62
internal_value=4.58875e-06 -0.100044 0.100044 0.100044
internal_weight=0.505242 0.252609 0.252633 0.0562383
internal_count=1149 574 575 128
is_linear=0
shrinkage=0.1


Tree=71
num_leaves=7
num_cat=0
split_feature=10 0 0 1 1 1
split_gain=0.457544 5.55112e-17 2.77556e-17 2.77556e-17 2.77556e-17 2.77556e-17
threshold=1.0000000180025095e-35 1.410885074600458 1.2951137719694013 1.0998933347122832 1.2384514364267523 1.081781520547457
decision_type=2 2 2 2 2 2
left_child=3 2 4 -1 5 -2
right_child=1 -3 -4 -5 -6 -7
leaf_value=0.1000397868857734 -0.10003985291329634 -0.10003985291329137 -0.10003985291328857 0.10003978688577178 -0.10003985291329082 -0.10003985291328954
leaf_weight=0.18248301115818322 0.16884625470265746 0.017920003447216004 0.011946668964810669 0.046117710880935192 0.016327114251907915 0.013539558160118759
leaf_count=459 424 45 30 116 41 34
internal_value=4.589e-06 -0.10004 -0.10004 0.10004 -0.10004 -0.10004
internal_weight=0.45718 0.22858 0.21066 0.228601 0.198713 0.182386
internal_count=1149 574 529 575 499 458
is_linear=0
shrinkage=0.1


Tree=72
num_leaves=3
num_cat=0
split_feature=10 0
split_gain=0.413987 2.77556e-17
threshold=1.0000000180025095e-35 1.5951324006808918
decision_type=2 2
left_child=-1 -2
right_child=1 -3
leaf_value=0.10003599288297121 -0.10003605475670743 -0.10003605475669726
leaf_weight=0.20685392591985874 0.19746599905192852 0.0093688247725367546
leaf_count=575 548 26
internal_value=4.58823e-06 -0.100036
internal_weight=0.413689 0.206835
internal_count=1149 574
is_linear=0
shrinkage=0.1


Tree=73
num_leaves=9
num_cat=0
split_feature=10 0 0 0 2 1 2 2
split_gain=0.374577 2.77556e-17 2.77556e-17 6.93889e-18 6.93889e-18 3.46945e-18 3.46945e-18 3.46945e-18
threshold=1.0000000180025095e-35 0.93458303531514708 -0.99460226365071558 1.2951137719694013 -0.20818508909662667 0.13824037881895576 -0.83049618180490803 0.62496696127016482
decision_type=2 2 2 2 2 2 2 2
left_child=1 -1 4 5 6 -3 -2 -6
right_child=2 3 -4 -5 7 -7 -8 -9
leaf_value=0.1000325708232114 -0.10003262428983194 0.10003257082320116 -0.10003262428984083 0.10003257082320929 -0.10003262428983301 0.10003257082320077 -0.10003262428982973 -0.10003262428983016
leaf_weight=0.1341151389060542 0.010433894582092762 0.0091146210907027125 0.14770482017775066 0.035156395635567605 0.011738131404854357 0.0087890989088919014 0.0084775393479503691 0.0088035985536407679
leaf_count=412 32 28 453 108 36 27 26 27
internal_value=4.58843e-06 0.100033 -0.100033 0.100033 -0.100033 0.100033 -0.100033 -0.100033
internal_weight=0.374333 0.187175 0.187158 0.0530601 0.0394532 0.0179037 0.0189114 0.0205417
internal_count=1149 575 574 163 121 55 58 63
is_linear=0
shrinkage=0.1


Tree=74
num_leaves=4
num_cat=0
split_feature=10 0 1
split_gain=0.338921 2.77556e-17 2.77556e-17
threshold=1.0000000180025095e-35 1.6504975274313118 1.4429334647918697
decision_type=2 2 2
left_child=2 -2 -1
right_child=1 -3 -4
leaf_value=0.10002947402743301 -0.10002952412593531 -0.10002952412592121 0.10002947402742819
leaf_weight=0.15110585300135426 0.16256663575768471 0.0067859031260013572 0.018262305820826441
leaf_count=513 551 23 62
internal_value=4.58776e-06 -0.10003 0.100029
internal_weight=0.338721 0.169353 0.169368
internal_count=1149 574 575
is_linear=0
shrinkage=0.1


Tree=75
num_leaves=5
num_cat=0
split_feature=10 0 1 2
split_gain=0.306659 2.77556e-17 2.77556e-17 3.46945e-18
threshold=1.0000000180025095e-35 1.6307944315277767 1.2384514364267523 0.74124916699396448
decision_type=2 2 2 2
left_child=2 -2 -1 -4
right_child=1 -3 3 -5
leaf_value=0.10002666550191559 -0.10002671969761651 -0.10002671969760157 0.10002666550191042 0.10002666550190567
leaf_weight=0.1271347951842472 0.14683331828564405 0.0064072720706462851 0.01679138804320246 0.0093285489128902555
leaf_count=477 550 24 63 35
internal_value=4.58816e-06 -0.100027 0.100027 0.100027
internal_weight=0.306495 0.153241 0.153255 0.0261199
internal_count=1149 574 575 98
is_linear=0
shrinkage=0.1


Tree=76
num_leaves=5
num_cat=0
split_feature=10 0 0 1
split_gain=0.277469 2.77556e-17 2.77556e-17 1.38778e-17
threshold=1.0000000180025095e-35 -0.49078638241835004 1.4576287081458477 1.5120547186503204
decision_type=2 2 2 2
left_child=1 -1 -2 -3
right_child=2 3 -4 -5
leaf_value=0.10002412928809008 -0.10002416785502921 0.10002412928809137 -0.10002416785501965 0.10002412928807819
leaf_weight=0.041722772002685815 0.12899837226723321 0.08995719050290063 0.0096627994207665324 0.0069939906825311473
leaf_count=173 534 373 40 29
internal_value=4.59051e-06 0.100024 -0.100024 0.100024
internal_weight=0.277335 0.138674 0.138661 0.0969512
internal_count=1149 575 574 402
is_linear=0
shrinkage=0.1


Tree=77
num_leaves=3
num_cat=0
split_feature=10 0
split_gain=0.251058 2.77556e-17
threshold=1.0000000180025095e-35 1.6307944315277767
decision_type=2 2
left_child=-1 -2
right_child=1 -3
leaf_value=0.10002183191214663 -0.10002186918194798 -0.10002186918192975
leaf_weight=0.12548011291073635 0.12022247974528 0.005246071843430399
leaf_count=575 550 24
internal_value=4.58942e-06 -0.100022
internal_weight=0.250949 0.125469
internal_count=1149 574
is_linear=0
shrinkage=0.1


Tree=78
num_leaves=4
num_cat=0
split_feature=10 0 0
split_gain=0.227162 1.38778e-17 1.38778e-17
threshold=1.0000000180025095e-35 -0.49078638241835004 1.2219682490542805
decision_type=2 2 2
left_child=1 -1 -2
right_child=2 -3 -4
leaf_value=0.1000197500760496 -0.10001979111762767 0.10001975007605129 -0.10001979111762255
leaf_weight=0.034161134157329798 0.097312183817848563 0.079380207695066929 0.016218697302974761
leaf_count=173 492 402 82
internal_value=4.58718e-06 0.10002 -0.10002
internal_weight=0.227072 0.113541 0.113531
internal_count=1149 575 574
is_linear=0
shrinkage=0.1


Tree=79
num_leaves=4
num_cat=0
split_feature=10 0 1
split_gain=0.205541 1.38778e-17 1.38778e-17
threshold=1.0000000180025095e-35 1.5951324006808918 1.3748097534316448
decision_type=2 2 2
left_child=2 -2 -1
right_child=1 -3 -4
leaf_value=0.10001787681724456 -0.1000178961553015 -0.10001789615528106 0.10001787681723812
leaf_weight=0.089516317122615874 0.098075609828811139 0.0046532223641406736 0.013221970992162824
leaf_count=501 548 26 74
internal_value=4.59331e-06 -0.100018 0.100018
internal_weight=0.205467 0.102729 0.102738
internal_count=1149 574 575
is_linear=0
shrinkage=0.1


Tree=80
num_leaves=6
num_cat=0
split_feature=10 1 0 1 1
split_gain=0.185978 2.77556e-17 1.38778e-17 6.93889e-18 3.46945e-18
threshold=1.0000000180025095e-35 0.13824037881895576 0.57929472335485799 0.48988538202268023 1.5744536728092744
decision_type=2 2 2 2 2
left_child=2 -2 3 -1 -5
right_child=1 -3 -4 4 -6
leaf_value=0.10001617432629205 -0.10001619261192551 -0.1000161926119254 0.10001617432629198 0.10001617432628845 0.10001617432627269
leaf_weight=0.036700154305435717 0.047772729012649506 0.045181665744166821 0.03589178086258471 0.015844119479879737 0.0045268912799656382
leaf_count=227 295 279 222 98 28
internal_value=4.59105e-06 -0.100016 0.100016 0.100016 0.100016
internal_weight=0.185917 0.0929544 0.0929629 0.0570712 0.020371
internal_count=1149 574 575 353 126
is_linear=0
shrinkage=0.1


Tree=81
num_leaves=5
num_cat=0
split_feature=10 0 0 2
split_gain=0.168277 1.38778e-17 1.38778e-17 8.67362e-19
threshold=1.0000000180025095e-35 -1.2122053477395027 1.5005460938618935 -0.14027964712102248
decision_type=2 2 2 2
left_child=1 3 -2 -1
right_child=2 -3 -4 -5
leaf_value=0.10001463234320269 -0.10001465789457094 0.10001463234322672 -0.10001465789455272 0.10001463234319832
leaf_weight=0.0039498691912740469 0.078981192214996554 0.076803012052550912 0.0051286488451296455 0.0033647033851593724
leaf_count=27 539 525 35 23
internal_value=4.59093e-06 0.100015 -0.100015 0.100015
internal_weight=0.168227 0.0841176 0.0841098 0.00731457
internal_count=1149 575 574 50
is_linear=0
shrinkage=0.1


Tree=82
num_leaves=4
num_cat=0
split_feature=10 2 2
split_gain=0.152261 1.38778e-17 1.38778e-17
threshold=1.0000000180025095e-35 1.2345339770082857 -1.6130256573150812
decision_type=2 2 2
left_child=1 2 -1
right_child=-2 -3 -4
leaf_value=0.10001323583663256 -0.10001326890942933 0.1000132358366557 0.1000132358366638
leaf_weight=0.0030445497832261017 0.07610674001625739 0.010324994917027652 0.06274419988039881
leaf_count=23 574 78 474
internal_value=4.58566e-06 0.100013 0.100013
internal_weight=0.15222 0.0761137 0.0657887
internal_count=1149 575 497
is_linear=0
shrinkage=0.1


Tree=83
num_leaves=12
num_cat=0
split_feature=10 0 0 1 2 1 2 2 2 1 2
split_gain=0.137769 1.38778e-17 1.38778e-17 1.38778e-17 6.93889e-18 1.73472e-18 1.73472e-18 1.73472e-18 1.73472e-18 8.67362e-19 8.67362e-19
threshold=1.0000000180025095e-35 1.6521516239999163 1.5951324006808918 1.0207143107303893 1.0886698970093438 1.6380218282862995 0.9039517950751258 -0.17801297054164153 1.5349711834194755 0.35065080483644012 -0.76685339272455733
decision_type=2 2 2 2 2 2 2 2 2 2 2
left_child=1 3 -2 4 -1 6 7 10 -6 -3 -5
right_child=2 9 -4 5 8 -7 -8 -9 -10 -11 -12
leaf_value=0.1000119852274908 -0.10001200187153843 0.10001198522746807 -0.10001200187150792 0.10001198522746119 0.10001198522747666 0.1000119852274612 0.1000119852274612 0.10001198522745365 0.10001198522745997 0.10001198522745161 0.10001198522745539
leaf_weight=0.039047080150339752 0.065745728061301634 0.0039526185428258023 0.0031193228642223394 0.0031141843064688163 0.0059888159739784896 0.0031141843064688155 0.0031141843064688155 0.0025153027090709639 0.0029944079869892448 0.0023955263895913959 0.0026350790285505354
leaf_count=326 548 33 26 26 50 26 26 21 25 20 22
internal_value=4.58998e-06 0.100012 -0.100012 0.100012 0.100012 0.100012 0.100012 0.100012 0.100012 0.100012 0.100012
internal_weight=0.137736 0.0688714 0.0688651 0.0625232 0.0480303 0.0144929 0.0113788 0.00826457 0.00898322 0.00634814 0.00574926
internal_count=1149 575 574 522 401 121 95 69 75 53 48
is_linear=0
shrinkage=0.1


Tree=84
num_leaves=6
num_cat=0
split_feature=10 1 1 1 1
split_gain=0.124657 6.93889e-18 6.93889e-18 1.73472e-18 1.73472e-18
threshold=1.0000000180025095e-35 -1.4928216260541027 1.0207143107303893 1.6380218282862995 1.5120547186503204
decision_type=2 2 2 2 2
left_child=1 -1 -3 4 -4
right_child=-2 2 3 -5 -6
leaf_value=0.10001083546246087 -0.10001085782733909 0.10001083546249281 0.10001083546248302 0.10001083546246202 0.10001083546245484
leaf_weight=0.0029262403986649579 0.062312350841239095 0.045519295090343803 0.0083452040998963639 0.0030346196726895877 0.0024927233025664472
leaf_count=27 574 420 77 28 23
internal_value=4.58829e-06 0.100011 0.100011 0.100011 0.100011
internal_weight=0.12463 0.0623181 0.0593918 0.0138725 0.0108379
internal_count=1149 575 548 128 100
is_linear=0
shrinkage=0.1


Tree=85
num_leaves=7
num_cat=0
split_feature=10 0 1 1 1 2
split_gain=0.112794 6.93889e-18 6.93889e-18 1.73472e-18 3.46945e-18 1.73472e-18
threshold=1.0000000180025095e-35 1.4813648524539949 0.89693590317022009 1.5744536728092744 1.4429334647918697 0.93645593185476572
decision_type=2 2 2 2 2 2
left_child=2 -2 -1 4 5 -4
right_child=1 -3 3 -5 -6 -7
leaf_value=0.1000098084546778 -0.10000982192537994 -0.10000982192535433 0.10000980845466541 0.10000980845465589 0.10000980845462915 0.1000098084546292
leaf_weight=0.0415802295319736 0.052748648857232183 0.0036344506661407641 0.0067665939568541944 0.0041187963215634235 0.0019613315816968688 0.0019613315816968679
leaf_count=424 537 37 69 42 20 20
internal_value=4.59014e-06 -0.10001 0.10001 0.10001 0.10001 0.10001
internal_weight=0.112771 0.0563831 0.0563883 0.0148081 0.0106893 0.00872793
internal_count=1149 574 575 151 109 89
is_linear=0
shrinkage=0.1


Tree=86
num_leaves=3
num_cat=0
split_feature=10 0
split_gain=0.102059 6.93889e-18
threshold=1.0000000180025095e-35 -0.69759438684778263
decision_type=2 2
left_child=-1 -2
right_child=1 -3
leaf_value=0.1000088720092925 -0.10000889013826819 -0.10000889013827155
leaf_weight=0.05102268132759491 0.016087554999103304 0.034930437097500544
leaf_count=575 181 393
internal_value=4.5868e-06 -0.100009
internal_weight=0.102041 0.051018
internal_count=1149 574
is_linear=0
shrinkage=0.1


Tree=87
num_leaves=5
num_cat=0
split_feature=10 0 0 1
split_gain=0.0923458 6.93889e-18 6.93889e-18 3.46945e-18
threshold=1.0000000180025095e-35 1.2951137719694013 -0.13371986731425958 1.5744536728092744
decision_type=2 2 2 2
left_child=1 2 3 -1
right_child=-2 -3 -4 -5
leaf_value=0.10000802886985297 -0.1000080427843537 0.10000802886984712 0.10000802886985311 0.10000802886980453
leaf_weight=0.017583834145625588 0.046163357648765668 0.0086714798526372761 0.018065583026327658 0.0018467040426912709
leaf_count=219 574 108 225 23
internal_value=4.58929e-06 0.100008 0.100008 0.100008
internal_weight=0.092331 0.0461676 0.0374961 0.0194305
internal_count=1149 575 467 242
is_linear=0
shrinkage=0.1


Tree=88
num_leaves=4
num_cat=0
split_feature=10 0 0
split_gain=0.0835573 6.93889e-18 6.93889e-18
threshold=1.0000000180025095e-35 1.6521516239999163 1.4576287081458477
decision_type=2 2 2
left_child=1 -1 -2
right_child=2 -3 -4
leaf_value=0.1000072608084368 -0.10000727884266146 0.10000726080841349 -0.10000727884262968
leaf_weight=0.037923960975604132 0.038859791384311393 0.0038505171105498439 0.0029108457965776316
leaf_count=522 534 53 40
internal_value=4.58872e-06 0.100007 -0.100007
internal_weight=0.0835451 0.0417745 0.0417706
internal_count=1149 575 574
is_linear=0
shrinkage=0.1


Tree=89
num_leaves=4
num_cat=0
split_feature=10 6 0
split_gain=0.0756052 1.38778e-17 6.93889e-18
threshold=1.0000000180025095e-35 -1.2882955162072143 -1.2714329907540647
decision_type=2 2 2
left_child=1 -1 -2
right_child=2 -3 -4
leaf_value=0.10000657445893604 -0.10000658572847372 0.10000657445895443 -0.10000658572850246
leaf_weight=0.0046673990727867922 0.0031606312841176978 0.033131959615275264 0.034635251155123115
leaf_count=71 48 504 526
internal_value=4.59317e-06 0.100007 -0.100007
internal_weight=0.0755952 0.0377994 0.0377959
internal_count=1149 575 574
is_linear=0
shrinkage=0.1


Tree=90
num_leaves=4
num_cat=0
split_feature=10 0 2
split_gain=0.06841 6.93889e-18 6.93889e-18
threshold=1.0000000180025095e-35 1.6521516239999163 1.0000000180025095e-35
decision_type=2 2 2
left_child=2 -2 -1
right_child=1 -3 -4
leaf_value=0.10000594479268621 -0.10000595942316388 -0.10000595942309068 0.10000594479268583
leaf_weight=0.017666322921286337 0.032888558227568865 0.0013107758713886133 0.01653615411487408
leaf_count=297 552 22 278
internal_value=4.58777e-06 -0.100006 0.100006
internal_weight=0.0684018 0.0341993 0.0342025
internal_count=1149 574 575
is_linear=0
shrinkage=0.1


Tree=91
num_leaves=4
num_cat=0
split_feature=10 0 1
split_gain=0.0618995 6.93889e-18 3.46945e-18
threshold=1.0000000180025095e-35 -0.83585326215879208 -1.4928216260541027
decision_type=2 2 2
left_child=2 -2 -1
right_child=1 -3 -4
leaf_value=0.10000538035122629 -0.1000053917319188 -0.10000539173192652 0.10000538035129165
leaf_weight=0.0014532032619172233 0.0082484070226200856 0.022696597101457883 0.029494643982616253
leaf_count=27 153 421 548
internal_value=4.58817e-06 -0.100005 0.100005
internal_weight=0.0618929 0.030945 0.0309478
internal_count=1149 574 575
is_linear=0
shrinkage=0.1


Tree=92
num_leaves=5
num_cat=0
split_feature=10 1 0 0
split_gain=0.0560087 6.93889e-18 3.46945e-18 8.67362e-19
threshold=1.0000000180025095e-35 -1.13382060417624 -0.84787619399571057 -1.2122053477395027
decision_type=2 2 2 2
left_child=2 -2 3 -1
right_child=1 -3 -4 -5
leaf_value=0.10000487048829561 -0.10000487738010494 -0.10000487738012372 0.10000487048833231 0.10000487048830004
leaf_weight=0.0024350352759938687 0.0043415150939836158 0.023658818208787125 0.022840630888822488 0.0027272395091131321
leaf_count=50 89 485 469 56
internal_value=4.59003e-06 -0.100005 0.100005 0.100005
internal_weight=0.0560032 0.0280003 0.0280029 0.00516227
internal_count=1149 574 575 106
is_linear=0
shrinkage=0.1


Tree=93
num_leaves=6
num_cat=0
split_feature=10 0 6 0 6
split_gain=0.0506785 3.46945e-18 3.46945e-18 1.73472e-18 4.33681e-19
threshold=1.0000000180025095e-35 -0.73108093722062917 -1.3646177748256088 -0.85314135284839721 -1.4911497529488995
decision_type=2 2 2 2 2
left_child=2 3 4 -2 -1
right_child=1 -3 -4 -5 -6
leaf_value=0.10000440852889923 -0.10000440950830103 -0.10000440950831187 0.10000440852896363 -0.10000440950826094 0.10000440852887729
leaf_weight=0.0014541917043970898 0.006047060975106433 0.017523235088447109 0.022782336702221073 0.0017655652482062578 0.0011016603821190065
leaf_count=33 137 397 517 40 25
internal_value=4.59275e-06 -0.100004 0.100004 -0.100004 0.100004
internal_weight=0.0506741 0.0253359 0.0253382 0.00781263 0.00255585
internal_count=1149 574 575 177 58
is_linear=0
shrinkage=0.1


Tree=94
num_leaves=6
num_cat=0
split_feature=10 0 2 1 2
split_gain=0.0458556 3.46945e-18 3.46945e-18 8.67362e-19 8.67362e-19
threshold=1.0000000180025095e-35 -0.8025768971750179 -0.76224608690891371 0.62525870774999459 -0.95364323770778603
decision_type=2 2 2 2 2
left_child=2 3 4 -2 -1
right_child=1 -3 -4 -5 -6
leaf_value=0.10000398714113101 -0.10000399879032121 -0.10000399879033706 0.10000398714114428 -0.10000399879029205 0.10000398714108934
leaf_weight=0.0051436297726468183 0.0045530340867117039 0.01641488604946062 0.016148605100170244 0.0019570058793760836 0.0016347970595234065
leaf_count=129 114 411 405 49 41
internal_value=4.58722e-06 -0.100004 0.100004 -0.100004 0.100004
internal_weight=0.045852 0.0229249 0.022927 0.00651004 0.00677843
internal_count=1149 574 575 163 170
is_linear=0
shrinkage=0.1


Tree=95
num_leaves=8
num_cat=0
split_feature=10 2 0 0 0 1 0
split_gain=0.0414917 6.93889e-18 3.46945e-18 1.73472e-18 1.73472e-18 1.73472e-18 4.33681e-19
threshold=1.0000000180025095e-35 -1.2042781707395644 -0.4562633348338091 1.5326742652333485 1.2219682490542805 1.1423526459598736 0.57929472335485799
decision_type=2 2 2 2 2 2 2
left_child=1 6 -2 4 5 -4 -1
right_child=2 -3 3 -5 -6 -7 -8
leaf_value=0.10000360986581479 -0.10000361398564937 0.10000360986585853 -0.10000361398564937 -0.1000036139855721 -0.10000361398560714 -0.10000361398557998 0.10000360986578272
leaf_weight=0.0020204129978083065 0.0082756796437024605 0.017498219713161234 0.0082756796437024605 0.0011202885107195479 0.0018430552918289331 0.0012287035278859557 0.0012266793200979009
leaf_count=56 229 485 229 31 51 34 34
internal_value=4.59071e-06 0.100004 -0.100004 -0.100004 -0.100004 -0.100004 0.100004
internal_weight=0.0414887 0.0207453 0.0207434 0.0124677 0.0113474 0.00950438 0.00324709
internal_count=1149 575 574 345 314 263 90
is_linear=0
shrinkage=0.1


Tree=96
num_leaves=4
num_cat=0
split_feature=10 0 2
split_gain=0.0375431 3.46945e-18 3.46945e-18
threshold=1.0000000180025095e-35 1.2928419232740684 -1.3274947067859584
decision_type=2 2 2
left_child=2 -2 -1
right_child=1 -3 -4
leaf_value=0.10000326515433677 -0.10000327090065973 -0.10000327090062566 0.10000326515437785
leaf_weight=0.0021219611153355791 0.016284314551739953 0.0024851564376149318 0.016649233366479166
leaf_count=65 498 76 510
internal_value=4.58828e-06 -0.100003 0.100003
internal_weight=0.0375407 0.0187695 0.0187712
internal_count=1149 574 575
is_linear=0
shrinkage=0.1


Tree=97
num_leaves=6
num_cat=0
split_feature=10 0 0 0 1
split_gain=0.0339703 3.46945e-18 3.46945e-18 1.73472e-18 1.73472e-18
threshold=1.0000000180025095e-35 0.2206181985740879 -0.029307647184857875 -0.13371986731425958 1.2993764612893315
decision_type=2 2 2 2 2
left_child=1 3 -2 -1 -3
right_child=2 4 -4 -5 -6
leaf_value=0.10000294964504951 -0.10000295708130423 0.10000294964504926 -0.10000295708130265 0.10000294964500511 0.10000294964497199
leaf_weight=0.0071484402069472708 0.0090538522890710738 0.0070302841704688035 0.0079295176910818554 0.0017132625289377756 0.0010929433374258224
leaf_count=242 306 238 268 58 37
internal_value=4.58971e-06 0.100003 -0.100003 0.100003 0.100003
internal_weight=0.0339683 0.0169849 0.0169834 0.0088617 0.00812323
internal_count=1149 575 574 300 275
is_linear=0
shrinkage=0.1


Tree=98
num_leaves=7
num_cat=0
split_feature=10 0 0 0 0 1
split_gain=0.0307375 1.73472e-18 1.73472e-18 1.73472e-18 1.73472e-18 8.67362e-19
threshold=1.0000000180025095e-35 0.57929472335485799 1.4662048283512539 1.2928419232740684 0.92719664112861355 0.89693590317022009
decision_type=2 2 2 2 2 2
left_child=1 -1 3 4 -2 -3
right_child=2 5 -4 -5 -6 -7
leaf_value=0.10000266777133121 -0.1000026769650469 0.10000266777131823 -0.10000267696495702 -0.10000267696495702 -0.1000026769649931 0.1000026677712824
leaf_weight=0.0094350094313995214 0.011726213560905308 0.0042497634549363292 0.0010173427290283152 0.0010173427290283152 0.0016063306247815498 0.0016838685387483565
leaf_count=353 438 159 38 38 60 63
internal_value=4.5888e-06 0.100003 -0.100003 -0.100003 -0.100003 0.100003
internal_weight=0.0307359 0.0153686 0.0153672 0.0143499 0.0133325 0.00593363
internal_count=1149 575 574 536 498 222
is_linear=0
shrinkage=0.1


Tree=99
num_leaves=6
num_cat=0
split_feature=10 2 0 1 0
split_gain=0.0278124 3.46945e-18 1.73472e-18 1.73472e-18 8.67362e-19
threshold=1.0000000180025095e-35 0.28249568312800255 0.93458303531514708 1.2384514364267523 1.1508727767254601
decision_type=2 2 2 2 2
left_child=2 -2 3 -1 -3
right_child=1 4 -4 -5 -6
leaf_value=0.10000242184764108 -0.10000242536665048 -0.10000242536663879 0.10000242184762775 0.10000242184759403 -0.10000242536656612
leaf_weight=0.0082711391369230114 0.0085754821993759833 0.0042877410996879925 0.0039420926295861145 0.0016929232151596816 0.0010416546174383257
leaf_count=342 354 177 163 70 43
internal_value=4.59029e-06 -0.100002 0.100002 0.100002 -0.100002
internal_weight=0.027811 0.0139049 0.0139062 0.00996406 0.0053294
internal_count=1149 574 575 412 220
is_linear=0
shrinkage=0.1


end of trees

feature_importances:
Column_0=181
Column_10=100
Column_1=68
Column_2=48
Column_6=8
Column_4=3
Column_3=2
Column_7=1
Column_8=1

parameters:
[boosting: gbdt]
[objective: binary]
[metric: auc]
[tree_learner: serial]
[device_type: cpu]
[data_sample_strategy: bagging]
[data: ]
[valid: ]
[num_iterations: 100]
[learning_rate: 0.1]
[num_leaves: 31]
[num_threads: 0]
[seed: 0]
[deterministic: 0]
[force_col_wise: 0]
[force_row_wise: 0]
[histogram_pool_size: -1]
[max_depth: -1]
[min_data_in_leaf: 20]
[min_sum_hessian_in_leaf: 0.001]
[bagging_fraction: 1]
[pos_bagging_fraction: 1]
[neg_bagging_fraction: 1]
[bagging_freq: 0]
[bagging_seed: 3]
[bagging_by_query: 0]
[feature_fraction: 1]
[feature_fraction_bynode: 1]
[feature_fraction_seed: 2]
[extra_trees: 0]
[extra_seed: 6]
[early_stopping_round: 0]
[early_stopping_min_delta: 0]
[first_metric_only: 0]
[max_delta_step: 0]
[lambda_l1: 0]
[lambda_l2: 0]
[linear_lambda: 0]
[min_gain_to_split: 0]
[drop_rate: 0.1]
[max_drop: 50]
[skip_drop: 0.5]
[xgboost_dart_mode: 0]
[uniform_drop: 0]
[drop_seed: 4]
[top_rate: 0.2]
[other_rate: 0.1]
[min_data_per_group: 100]
[max_cat_threshold: 32]
[cat_l2: 10]
[cat_smooth: 10]
[max_cat_to_onehot: 4]
[top_k: 20]
[monotone_constraints: ]
[monotone_constraints_method: basic]
[monotone_penalty: 0]
[feature_contri: ]
[forcedsplits_filename: ]
[refit_decay_rate: 0.9]
[cegb_tradeoff: 1]
[cegb_penalty_split: 0]
[cegb_penalty_feature_lazy: ]
[cegb_penalty_feature_coupled: ]
[path_smooth: 0]
[interaction_constraints: ]
[verbosity: -1]
[saved_feature_importance_type: 0]
[use_quantized_grad: 0]
[num_grad_quant_bins: 4]
[quant_train_renew_leaf: 0]
[stochastic_rounding: 1]
[linear_tree: 0]
[max_bin: 255]
[max_bin_by_feature: ]
[min_data_in_bin: 3]
[bin_construct_sample_cnt: 200000]
[data_random_seed: 1]
[is_enable_sparse: 1]
[enable_bundle: 1]
[use_missing: 1]
[zero_as_missing: 0]
[feature_pre_filter: 1]
[pre_partition: 0]
[two_round: 0]
[header: 0]
[label_column: ]
[weight_column: ]
[group_column: ]
[ignore_column: ]
[categorical_feature: ]
[forcedbins_filename: ]
[precise_float_parser: 0]
[parser_config_file: ]
[objective_seed: 5]
[num_class: 1]
[is_unbalance: 0]
[scale_pos_weight: 1]
[sigmoid: 1]
[boost_from_average: 1]
[reg_sqrt: 0]
[alpha: 0.9]
[fair_c: 1]
[poisson_max_delta_step: 0.7]
[tweedie_variance_power: 1.5]
[lambdarank_truncation_level: 30]
[lambdarank_norm: 1]
[label_gain: ]
[lambdarank_position_bias_regularization: 0]
[eval_at: ]
[multi_error_top_k: 1]
[auc_mu_weights: ]
[num_machines: 1]
[local_listen_port: 12400]
[time_out: 120]
[machine_list_filename: ]
[machines: ]
[gpu_platform_id: -1]
[gpu_device_id: -1]
[gpu_use_dp: 0]
[num_gpu: 1]

end of parameters

pandas_categorical:null
